{"test":{"sizes":[3,3,1],"layers":[{"0":{},"1":{},"2":{}},{"0":{"bias":-0.6399656534194946,"weights":{"0":2.440162181854248,"1":-0.33727365732192993,"2":-0.34875619411468506}},"1":{"bias":-0.46070346236228943,"weights":{"0":2.100783348083496,"1":-0.27043434977531433,"2":-0.2990303039550781}},"2":{"bias":0.8703202605247498,"weights":{"0":-3.2458698749542236,"1":0.5686620473861694,"2":0.5433120727539062}}},{"0":{"bias":-0.6719498038291931,"weights":{"0":2.5969736576080322,"1":2.194578170776367,"2":-4.085931301116943}}}],"outputLookup":false,"inputLookup":false,"activation":"sigmoid","trainOpts":{"iterations":20000,"errorThresh":0.005,"log":false,"logPeriod":10,"learningRate":0.3,"momentum":0.1,"callbackPeriod":10,"beta1":0.9,"beta2":0.999,"epsilon":1e-8}},"get_command":{"type":"LSTM","options":{"inputSize":38,"inputRange":38,"hiddenLayers":[20,20],"outputSize":38,"decayRate":0.999,"smoothEps":1e-8,"regc":0.000001,"clipval":5,"maxPredictionLength":100,"dataFormatter":{"values":["who are you",["about_me ","question ","null ","false"],"what are you",["about_me ","question ","null ","false"],"what is the meaning of life",["meaning_of_life ","question ","questional ","false"],"google",["google ","question ","null ","true"],"add",["calculate_add ","question ","null ","true"],"subtract",["calculate_subtract ","question ","null ","true"],"take away",["calculate_subtract ","question ","null ","true"],"multiply",["calculate_multiply ","question ","null ","true"],"times",["calculate_multiply ","question ","null ","true"],"devide",["calculate_devide ","question ","null ","true"]],"indexTable":{"w":0,"h":1,"o":2," ":3,"a":4,"r":5,"e":6,"y":7,"u":8,"about_me ":9,"question ":10,"null ":11,"false":12,"t":13,"i":14,"s":15,"m":16,"n":17,"g":18,"f":19,"l":20,"meaning_of_life ":21,"questional ":22,"google ":23,"true":24,"d":25,"calculate_add ":26,"b":27,"c":28,"calculate_subtract ":29,"k":30,"p":31,"calculate_multiply ":32,"v":33,"calculate_devide ":34,"stop-input":35,"start-output":36,"unrecognized":37},"characterTable":{"0":"w","1":"h","2":"o","3":" ","4":"a","5":"r","6":"e","7":"y","8":"u","9":"about_me ","10":"question ","11":"null ","12":"false","13":"t","14":"i","15":"s","16":"m","17":"n","18":"g","19":"f","20":"l","21":"meaning_of_life ","22":"questional ","23":"google ","24":"true","25":"d","26":"calculate_add ","27":"b","28":"c","29":"calculate_subtract ","30":"k","31":"p","32":"calculate_multiply ","33":"v","34":"calculate_devide ","35":null,"36":null,"37":null},"characters":["w","h","o"," ","a","r","e","y","u","about_me ","question ","null ","false","t","i","s","m","n","g","f","l","meaning_of_life ","questional ","google ","true","d","calculate_add ","b","c","calculate_subtract ","k","p","calculate_multiply ","v","calculate_devide ","stop-input","start-output","unrecognized"],"specialIndexes":[35,36,37]}},"input":{"rows":39,"columns":38,"weights":{"0":-1.1229673624038696,"1":0.60036301612854,"2":-1.585293173789978,"3":-2.557626724243164,"4":2.1785991191864014,"5":-0.08428371697664261,"6":-0.266001433134079,"7":2.920877456665039,"8":-0.3949286937713623,"9":-2.229029893875122,"10":0.3372040092945099,"11":-2.139697790145874,"12":0.9981866478919983,"13":-1.4945039749145508,"14":-0.4459095597267151,"15":0.29984816908836365,"16":-0.7585363984107971,"17":-1.7525315284729004,"18":0.543683648109436,"19":1.5227535963058472,"20":0.9810240864753723,"21":1.7223856449127197,"22":0.0945466086268425,"23":-3.7723445892333984,"24":-1.1672018766403198,"25":1.4437758922576904,"26":-1.317094087600708,"27":-0.6074294447898865,"28":1.0847874879837036,"29":-0.6766000986099243,"30":-0.7543051838874817,"31":0.2685464024543762,"32":-1.40008544921875,"33":-0.7951410412788391,"34":-1.1243135929107666,"35":0.2037612795829773,"36":-2.288261890411377,"37":-1.0024205446243286,"38":-4.270753383636475,"39":-0.8723732233047485,"40":2.6177384853363037,"41":1.812325119972229,"42":6.839229583740234,"43":4.382153511047363,"44":-3.482889175415039,"45":-2.297513723373413,"46":0.4090838134288788,"47":0.5753384828567505,"48":-0.5573534369468689,"49":-0.5897776484489441,"50":3.125633716583252,"51":0.49864712357521057,"52":0.8092373609542847,"53":-2.1657116413116455,"54":0.4459383189678192,"55":-1.7392637729644775,"56":-6.13143253326416,"57":-2.2374346256256104,"58":-0.21780440211296082,"59":2.072862148284912,"60":-0.33770719170570374,"61":2.6851885318756104,"62":0.6951618790626526,"63":-2.568549394607544,"64":-6.889492034912109,"65":2.423788070678711,"66":0.10320508480072021,"67":-0.22619622945785522,"68":1.3524446487426758,"69":-0.7662210464477539,"70":-0.41310831904411316,"71":4.016250133514404,"72":2.381939649581909,"73":0.8942608833312988,"74":-4.025702476501465,"75":3.3784501552581787,"76":-1.0963281393051147,"77":-0.9660103917121887,"78":2.6238293647766113,"79":-0.7381959557533264,"80":-1.6399219036102295,"81":1.2457029819488525,"82":-4.768314838409424,"83":3.487088918685913,"84":-0.8424283862113953,"85":3.5177667140960693,"86":2.73746395111084,"87":-2.2999379634857178,"88":-1.6647921800613403,"89":-3.7463126182556152,"90":-1.619449257850647,"91":3.9889163970947266,"92":-1.8961079120635986,"93":-2.824387788772583,"94":6.740108489990234,"95":0.9956424236297607,"96":-0.46823474764823914,"97":2.394214630126953,"98":4.099319934844971,"99":-4.611533164978027,"100":-0.04176226258277893,"101":-8.335240364074707,"102":0.3649809956550598,"103":5.4754228591918945,"104":1.248438835144043,"105":1.5472012758255005,"106":-1.2927219867706299,"107":1.4321800470352173,"108":-2.921717405319214,"109":-2.0982911586761475,"110":-9.534058570861816,"111":-4.0144500732421875,"112":4.725988864898682,"113":-7.105128288269043,"114":-1.7564889192581177,"115":-2.8158411979675293,"116":-0.6420717239379883,"117":-2.4663288593292236,"118":-4.643727779388428,"119":-1.6269105672836304,"120":-4.049379825592041,"121":5.951157569885254,"122":-3.3167238235473633,"123":-1.7290576696395874,"124":-0.7762699127197266,"125":-4.927552700042725,"126":3.2345383167266846,"127":-2.649993896484375,"128":-3.3160946369171143,"129":-5.287635803222656,"130":-0.6675533652305603,"131":-1.5465452671051025,"132":8.503788948059082,"133":-0.6742810010910034,"134":8.26496410369873,"135":-2.7290384769439697,"136":-1.8648368120193481,"137":-7.055164813995361,"138":1.3026835918426514,"139":3.169783592224121,"140":-0.8895552754402161,"141":1.8148186206817627,"142":6.946718215942383,"143":-2.2754437923431396,"144":1.3538544178009033,"145":0.23264890909194946,"146":-0.6026456356048584,"147":-1.1720607280731201,"148":3.7156004905700684,"149":-3.106752634048462,"150":5.751742362976074,"151":-1.6287802457809448,"152":-2.2857470512390137,"153":-0.7406973242759705,"154":5.3904852867126465,"155":0.9461145401000977,"156":3.1718411445617676,"157":2.757780075073242,"158":-4.618924617767334,"159":-0.23760992288589478,"160":-6.594546318054199,"161":-2.888453245162964,"162":-4.1273722648620605,"163":-1.630786418914795,"164":3.2576828002929688,"165":-3.771744728088379,"166":-0.7430710196495056,"167":-1.2131727933883667,"168":-5.659464359283447,"169":1.0280793905258179,"170":-0.2238089144229889,"171":-0.8902809023857117,"172":-2.3515312671661377,"173":-3.55029559135437,"174":2.396703004837036,"175":0.05754697322845459,"176":1.4490914344787598,"177":4.685476779937744,"178":1.0157067775726318,"179":2.9486422538757324,"180":1.0058231353759766,"181":-1.1802276372909546,"182":-0.3363635241985321,"183":-2.5025277137756348,"184":-0.2440507858991623,"185":1.0283949375152588,"186":0.9428280591964722,"187":-3.2604482173919678,"188":-1.4345180988311768,"189":3.1833229064941406,"190":-2.308120012283325,"191":3.8724422454833984,"192":-0.8745734095573425,"193":-4.463471412658691,"194":-4.129119396209717,"195":-1.913480281829834,"196":-3.4084203243255615,"197":0.7904149889945984,"198":3.88627552986145,"199":-1.4973746538162231,"200":3.2626428604125977,"201":-1.5295177698135376,"202":-0.8933736085891724,"203":3.3116164207458496,"204":0.7840084433555603,"205":-3.5795841217041016,"206":-1.3559893369674683,"207":-3.9234976768493652,"208":-0.6547778248786926,"209":1.2432873249053955,"210":-2.9433538913726807,"211":-1.2238733768463135,"212":2.245512008666992,"213":3.3541014194488525,"214":3.1074588298797607,"215":1.275221347808838,"216":0.9274367690086365,"217":-1.7602099180221558,"218":-5.5851850509643555,"219":-2.6326394081115723,"220":-3.1985819339752197,"221":0.39888742566108704,"222":-1.8823152780532837,"223":-1.6390634775161743,"224":1.905134677886963,"225":1.778824806213379,"226":0.4161610007286072,"227":2.1675610542297363,"228":-4.373332977294922,"229":1.461546778678894,"230":1.5013127326965332,"231":2.9433698654174805,"232":-3.739636182785034,"233":6.355857849121094,"234":1.116004228591919,"235":3.909890651702881,"236":-2.05536150932312,"237":1.6388224363327026,"238":-4.558768272399902,"239":2.1317427158355713,"240":3.206059455871582,"241":-2.3254733085632324,"242":-0.927180826663971,"243":-1.8424581289291382,"244":-5.153771877288818,"245":-0.06031392514705658,"246":-5.511537075042725,"247":-1.0839530229568481,"248":-0.2546055018901825,"249":-1.3177618980407715,"250":-1.767043113708496,"251":1.6575340032577515,"252":0.490891695022583,"253":3.3796401023864746,"254":-2.975241184234619,"255":-0.29264456033706665,"256":0.012989690527319908,"257":-5.939044952392578,"258":10.581729888916016,"259":-1.0455296039581299,"260":2.886807680130005,"261":4.089398384094238,"262":6.850257396697998,"263":-4.55862283706665,"264":-3.9258224964141846,"265":3.3951127529144287,"266":0.5100946426391602,"267":-0.6070104837417603,"268":-1.8077309131622314,"269":0.4292609691619873,"270":-5.66373872756958,"271":3.4717061519622803,"272":-3.9421730041503906,"273":-1.6706652641296387,"274":3.9226572513580322,"275":-1.314218282699585,"276":-1.0676090717315674,"277":-0.4124161899089813,"278":1.038766622543335,"279":-1.8752830028533936,"280":2.4353208541870117,"281":3.338561773300171,"282":-1.4794305562973022,"283":2.412445068359375,"284":-0.16534635424613953,"285":0.7392260432243347,"286":0.1950647532939911,"287":-0.26418405771255493,"288":3.0042459964752197,"289":0.2835748493671417,"290":1.0338207483291626,"291":0.36861035227775574,"292":2.917546272277832,"293":6.418114185333252,"294":0.8307488560676575,"295":4.792171478271484,"296":1.6142401695251465,"297":-4.156517028808594,"298":-0.30412954092025757,"299":0.5158742666244507,"300":-2.1594955921173096,"301":-4.8164777755737305,"302":2.9943649768829346,"303":-5.108766555786133,"304":-3.4870336055755615,"305":-0.8480480313301086,"306":-4.190704822540283,"307":-3.0748419761657715,"308":-6.597172260284424,"309":-3.897287607192993,"310":-2.5811610221862793,"311":0.25260627269744873,"312":1.859971046447754,"313":-2.597196340560913,"314":1.4193133115768433,"315":-2.093827724456787,"316":1.9176933765411377,"317":-0.19748398661613464,"318":4.735895156860352,"319":2.296464681625366,"320":-0.6998211741447449,"321":-2.3215503692626953,"322":9.852025985717773,"323":2.698040246963501,"324":5.032626628875732,"325":0.9453272223472595,"326":2.7819464206695557,"327":4.922032356262207,"328":1.6138142347335815,"329":4.839375972747803,"330":0.02969099022448063,"331":-1.0020556449890137,"332":-4.444580078125,"333":-5.6134724617004395,"334":-0.3080466091632843,"335":-4.411977767944336,"336":-3.126286029815674,"337":-0.9439362287521362,"338":0.24192076921463013,"339":-0.46864405274391174,"340":1.2476557493209839,"341":-0.44919782876968384,"342":2.1184768676757812,"343":-3.5044894218444824,"344":3.9502296447753906,"345":3.4363605976104736,"346":-0.38068777322769165,"347":4.781620979309082,"348":-3.1762332916259766,"349":-0.031464483588933945,"350":-2.828824520111084,"351":5.627418041229248,"352":-1.8367308378219604,"353":0.3735250234603882,"354":-0.7910420298576355,"355":-0.24470922350883484,"356":3.4835469722747803,"357":-1.713842749595642,"358":-0.6583288311958313,"359":2.5141215324401855,"360":-5.323287487030029,"361":-6.324156761169434,"362":-0.8214671611785889,"363":0.8164622783660889,"364":-2.7335283756256104,"365":1.0952858924865723,"366":-0.7205405235290527,"367":3.499955654144287,"368":0.19542373716831207,"369":3.6048858165740967,"370":3.3182780742645264,"371":-2.090256929397583,"372":1.9178955554962158,"373":-2.460803508758545,"374":0.2819061279296875,"375":4.500722408294678,"376":-0.4594462513923645,"377":-1.9185692071914673,"378":0.0377810001373291,"379":-1.8117963075637817,"380":-3.4662933349609375,"381":6.091012001037598,"382":3.99874210357666,"383":-3.7427403926849365,"384":3.915132761001587,"385":-0.8448958992958069,"386":7.291162490844727,"387":-6.1672844886779785,"388":-5.148553848266602,"389":-6.872747898101807,"390":0.7959086298942566,"391":-3.7886924743652344,"392":-0.892153799533844,"393":3.794281482696533,"394":-4.077123641967773,"395":-9.515066146850586,"396":-2.4211318492889404,"397":-5.87358283996582,"398":-1.773644208908081,"399":-0.48743632435798645,"400":-0.5732854008674622,"401":1.2530978918075562,"402":3.8310678005218506,"403":-3.462819814682007,"404":4.9292778968811035,"405":1.9906644821166992,"406":-6.380606174468994,"407":-4.282139778137207,"408":-0.1227058470249176,"409":-3.391495704650879,"410":-4.059854507446289,"411":-0.08101075887680054,"412":-5.544743061065674,"413":-1.3452154397964478,"414":10.378838539123535,"415":0.46674972772598267,"416":-5.4038214683532715,"417":3.370382070541382,"418":-0.6484938859939575,"419":1.0844591856002808,"420":4.35175895690918,"421":-0.41080242395401,"422":0.5403980016708374,"423":0.6359146237373352,"424":1.2327378988265991,"425":2.2849605083465576,"426":-3.0499396324157715,"427":-0.9845078587532043,"428":-1.7694339752197266,"429":1.459357738494873,"430":-0.5151487588882446,"431":-0.49624934792518616,"432":-1.0352742671966553,"433":-2.431867837905884,"434":1.9642183780670166,"435":0.02955908328294754,"436":-2.78090500831604,"437":-1.255006194114685,"438":-0.9618147015571594,"439":-3.885004997253418,"440":-0.9069398641586304,"441":-0.9620962142944336,"442":-2.5313775539398193,"443":-0.13018649816513062,"444":-2.4534709453582764,"445":-0.6419293880462646,"446":-0.08715805411338806,"447":1.148093581199646,"448":1.3381515741348267,"449":0.5721957683563232,"450":-0.3614027500152588,"451":2.8814313411712646,"452":1.2116169929504395,"453":0.8692664504051208,"454":-2.3603591918945312,"455":0.8860852718353271,"456":2.3763468265533447,"457":4.304149627685547,"458":-0.3362073302268982,"459":0.7050151228904724,"460":-2.027524948120117,"461":-0.8392826914787292,"462":2.042858600616455,"463":0.5882623195648193,"464":1.88821542263031,"465":2.0489065647125244,"466":1.5690667629241943,"467":4.931894779205322,"468":-4.137473106384277,"469":1.0534433126449585,"470":-1.090757966041565,"471":-2.654862642288208,"472":-1.7358002662658691,"473":3.678866147994995,"474":1.5791581869125366,"475":-1.3338850736618042,"476":0.5025661587715149,"477":-1.6762828826904297,"478":-1.3290668725967407,"479":2.409719705581665,"480":-0.4853162169456482,"481":0.8324623107910156,"482":2.248673439025879,"483":-1.4549062252044678,"484":-0.4804351329803467,"485":-0.5721161961555481,"486":-1.5257090330123901,"487":-0.014931958168745041,"488":0.8598770499229431,"489":-0.16559894382953644,"490":0.5403843522071838,"491":-2.262298345565796,"492":-0.9748588800430298,"493":-0.14131957292556763,"494":2.3296163082122803,"495":-2.8271374702453613,"496":5.999732494354248,"497":6.1203227043151855,"498":-6.352415084838867,"499":-2.286315679550171,"500":-5.176172733306885,"501":-1.6718441247940063,"502":3.9369683265686035,"503":8.330998420715332,"504":1.7962983846664429,"505":1.198880672454834,"506":0.6746445894241333,"507":-0.8740407824516296,"508":5.196616172790527,"509":5.345984935760498,"510":-1.065824031829834,"511":9.933409690856934,"512":0.3085514008998871,"513":-1.6406347751617432,"514":-3.004634141921997,"515":-3.7876601219177246,"516":-3.014775037765503,"517":2.6343836784362793,"518":0.1690521240234375,"519":-0.8846520185470581,"520":3.5817220211029053,"521":4.967069625854492,"522":-3.3892226219177246,"523":7.943954944610596,"524":1.2245203256607056,"525":-0.5348610877990723,"526":-0.6712567210197449,"527":0.05996549129486084,"528":-9.955892562866211,"529":-2.7143514156341553,"530":0.7701493501663208,"531":-2.17740535736084,"532":1.7974404096603394,"533":2.1581528186798096,"534":1.540921688079834,"535":2.6734654903411865,"536":0.37729713320732117,"537":1.5218143463134766,"538":-3.7329914569854736,"539":-0.47855091094970703,"540":-0.5645378828048706,"541":2.8212146759033203,"542":-0.6863054037094116,"543":0.7798189520835876,"544":-0.15971103310585022,"545":-2.7586047649383545,"546":-1.4641475677490234,"547":3.5375678539276123,"548":-6.170655250549316,"549":0.2574586868286133,"550":-0.2963672876358032,"551":-0.11653955280780792,"552":0.5631020665168762,"553":-1.9866361618041992,"554":2.0804481506347656,"555":2.1038901805877686,"556":-1.5902457237243652,"557":-1.2931654453277588,"558":0.6465474367141724,"559":3.040457010269165,"560":-3.0532262325286865,"561":1.9602888822555542,"562":0.16709518432617188,"563":-3.559532403945923,"564":2.1372926235198975,"565":-0.33664819598197937,"566":-3.546316146850586,"567":-5.342036247253418,"568":3.581960439682007,"569":-1.9879409074783325,"570":1.4580756425857544,"571":1.1248196363449097,"572":-4.29129695892334,"573":-2.17457914352417,"574":4.320862293243408,"575":0.7835609316825867,"576":5.7380290031433105,"577":-3.221409797668457,"578":3.008213758468628,"579":-3.5959556102752686,"580":2.202484607696533,"581":2.7748427391052246,"582":-6.3738484382629395,"583":-0.043134529143571854,"584":-6.4824724197387695,"585":-0.35973671078681946,"586":3.93056058883667,"587":0.7425547242164612,"588":0.6959771513938904,"589":1.3288486003875732,"590":0.2943105697631836,"591":4.143848419189453,"592":1.8811070919036865,"593":0.30963170528411865,"594":2.521111249923706,"595":-4.325817108154297,"596":1.773636817932129,"597":-4.638735294342041,"598":3.6682093143463135,"599":-4.115645408630371,"600":-6.000405788421631,"601":6.241307735443115,"602":-0.7144583463668823,"603":-3.098597764968872,"604":2.2767505645751953,"605":-1.9331387281417847,"606":-2.728191375732422,"607":0.8067030906677246,"608":1.257114052772522,"609":3.3129096031188965,"610":0.10400868952274323,"611":2.458329439163208,"612":0.8864262104034424,"613":3.011892557144165,"614":-6.366793155670166,"615":-1.8550187349319458,"616":-1.501369595527649,"617":8.996758460998535,"618":-1.8838229179382324,"619":2.4144511222839355,"620":1.7336012125015259,"621":-2.5680580139160156,"622":0.4198577105998993,"623":3.1998064517974854,"624":-5.6767120361328125,"625":2.581469774246216,"626":0.1181538999080658,"627":0.12461214512586594,"628":1.3711981773376465,"629":-2.577751398086548,"630":1.8208256959915161,"631":2.4347074031829834,"632":0.4403945803642273,"633":-0.710615336894989,"634":-0.8627375364303589,"635":4.88596773147583,"636":-2.6461570262908936,"637":0.20700614154338837,"638":5.919647216796875,"639":-3.5450117588043213,"640":-0.9943474531173706,"641":1.4544401168823242,"642":-4.838798999786377,"643":-8.196006774902344,"644":4.902871131896973,"645":0.7063735723495483,"646":3.0650837421417236,"647":1.5359904766082764,"648":-7.207834720611572,"649":1.3122376203536987,"650":5.253551483154297,"651":-4.09545373916626,"652":2.1496224403381348,"653":-1.3832333087921143,"654":4.948844909667969,"655":-1.5496633052825928,"656":0.5841711163520813,"657":2.399559736251831,"658":1.6081019639968872,"659":2.721339225769043,"660":-6.7519636154174805,"661":1.9625738859176636,"662":1.5772144794464111,"663":2.3023109436035156,"664":4.012248516082764,"665":4.475256443023682,"666":0.9704463481903076,"667":2.8878095149993896,"668":2.950059652328491,"669":-4.73618745803833,"670":6.644912242889404,"671":1.790626049041748,"672":-3.2566311359405518,"673":-3.2277159690856934,"674":-2.8561911582946777,"675":-0.6378844380378723,"676":-4.193948745727539,"677":0.12268992513418198,"678":2.087759494781494,"679":-6.085410118103027,"680":-0.24664323031902313,"681":-0.3903014659881592,"682":-1.3140783309936523,"683":0.03397246077656746,"684":-1.1476452350616455,"685":-8.469799995422363,"686":5.3357133865356445,"687":1.0198599100112915,"688":-5.356790542602539,"689":-5.45299768447876,"690":-2.643003225326538,"691":-6.155193328857422,"692":9.078819274902344,"693":4.010368347167969,"694":-8.122485160827637,"695":-2.8907439708709717,"696":-0.007036498282104731,"697":-9.524795532226562,"698":-10.904924392700195,"699":-9.953070640563965,"700":-6.375217914581299,"701":-1.4515628814697266,"702":-2.4378116130828857,"703":7.185007095336914,"704":12.780674934387207,"705":-3.0903115272521973,"706":-7.321186542510986,"707":1.8385740518569946,"708":13.297568321228027,"709":-0.4532233476638794,"710":-4.591231346130371,"711":-4.4585771560668945,"712":7.714794635772705,"713":-2.202005624771118,"714":-1.9015202522277832,"715":2.3294849395751953,"716":-0.7428033351898193,"717":-2.5251309871673584,"718":11.663908958435059,"719":-10.902112007141113,"720":4.977413654327393,"721":-2.137561082839966,"722":-7.140474796295166,"723":-3.4430720806121826,"724":1.8322837352752686,"725":-3.4823436737060547,"726":2.2603671550750732,"727":2.549060106277466,"728":-0.7350738048553467,"729":-4.368864059448242,"730":-1.5322915315628052,"731":-2.782588481903076,"732":0.08022826910018921,"733":1.4192370176315308,"734":10.497834205627441,"735":0.12355601042509079,"736":3.117832660675049,"737":4.99160099029541,"738":0.13408656418323517,"739":-3.200521469116211,"740":4.869600296020508,"741":-5.159493923187256,"742":-3.7085256576538086,"743":0.8777735233306885,"744":4.998537540435791,"745":10.60577392578125,"746":-2.2758493423461914,"747":0.4569639563560486,"748":1.403351902961731,"749":6.21657657623291,"750":-1.2347915172576904,"751":-2.0563981533050537,"752":5.143730640411377,"753":-8.664026260375977,"754":-1.7054733037948608,"755":-4.909642696380615,"756":-3.4227499961853027,"757":-1.9520338773727417,"758":3.098491668701172,"759":-3.9753997325897217,"760":-3.4409830570220947,"761":-8.121004104614258,"762":5.5103535652160645,"763":0.3268960118293762,"764":0.017088593915104866,"765":4.240502834320068,"766":-5.4649271965026855,"767":4.74522066116333,"768":-12.200369834899902,"769":-1.0473594665527344,"770":-2.0016965866088867,"771":-7.207973957061768,"772":2.21331524848938,"773":-8.162708282470703,"774":1.0108338594436646,"775":-3.6307270526885986,"776":-12.766886711120605,"777":-6.490579605102539,"778":2.711988925933838,"779":-4.442698001861572,"780":14.545488357543945,"781":9.666475296020508,"782":-11.799217224121094,"783":0.3847997784614563,"784":4.19387149810791,"785":2.0242955684661865,"786":4.555156707763672,"787":-0.8118823170661926,"788":5.266768932342529,"789":-6.365106105804443,"790":7.646066665649414,"791":-4.142416000366211,"792":-1.7823750972747803,"793":8.130293846130371,"794":0.9351572394371033,"795":-10.412144660949707,"796":-0.18113845586776733,"797":3.1588590145111084,"798":-2.914008378982544,"799":-7.182276725769043,"800":-0.12727543711662292,"801":0.5954189300537109,"802":1.451812505722046,"803":-0.2816133499145508,"804":-1.5679333209991455,"805":1.4025875329971313,"806":-0.19736801087856293,"807":-1.8152616024017334,"808":0.30943360924720764,"809":-5.822774410247803,"810":-0.3649854362010956,"811":-1.4911216497421265,"812":-0.47391846776008606,"813":3.657843589782715,"814":5.496298789978027,"815":-1.507306694984436,"816":2.10408091545105,"817":0.6169986128807068,"818":4.946678638458252,"819":1.5341979265213013,"820":0.682219922542572,"821":-6.669288635253906,"822":0.35542890429496765,"823":-4.183986186981201,"824":2.7421061992645264,"825":4.590708255767822,"826":9.837214469909668,"827":1.8932374715805054,"828":0.9034243226051331,"829":5.178149700164795,"830":0.3766542077064514,"831":1.5702052116394043,"832":-2.3417086601257324,"833":-6.436351299285889,"834":-0.014702106826007366,"835":-8.214911460876465,"836":8.158341407775879,"837":8.501932144165039,"838":7.213889122009277,"839":2.8383097648620605,"840":-1.048916220664978,"841":7.577892303466797,"842":1.6535613536834717,"843":-2.6895923614501953,"844":1.5742931365966797,"845":5.038801670074463,"846":-13.031289100646973,"847":10.893507957458496,"848":1.0179157257080078,"849":0.2857941687107086,"850":-5.324256420135498,"851":2.9453184604644775,"852":0.5231912732124329,"853":3.195439577102661,"854":-11.765588760375977,"855":-3.8971710205078125,"856":-6.100192546844482,"857":-4.205328941345215,"858":-6.396153450012207,"859":5.0941596031188965,"860":-0.6111862063407898,"861":2.812997341156006,"862":-3.650588035583496,"863":0.6262791156768799,"864":-2.7621800899505615,"865":-2.2994372844696045,"866":2.220247507095337,"867":-3.3482155799865723,"868":7.056035041809082,"869":0.8654922246932983,"870":-4.732998371124268,"871":-2.0618791580200195,"872":-0.3162250816822052,"873":4.420673847198486,"874":-2.3077571392059326,"875":-2.126974105834961,"876":-10.34337043762207,"877":-10.313796997070312,"878":-4.556556701660156,"879":2.659245729446411,"880":-3.256667137145996,"881":1.1369867324829102,"882":3.0529778003692627,"883":-7.127700328826904,"884":0.6781647801399231,"885":-2.9147024154663086,"886":4.577455997467041,"887":5.807760238647461,"888":0.7088631391525269,"889":3.703209400177002,"890":4.5251545906066895,"891":-4.010809421539307,"892":-3.765268564224243,"893":18.082462310791016,"894":12.153241157531738,"895":4.938282012939453,"896":-5.564382553100586,"897":-1.9643634557724,"898":-4.588476181030273,"899":-6.151089191436768,"900":-4.986891746520996,"901":-9.563567161560059,"902":0.9609588980674744,"903":-6.577105522155762,"904":-4.469519138336182,"905":10.045245170593262,"906":1.0722575187683105,"907":-4.095654487609863,"908":2.038613796234131,"909":3.0138907432556152,"910":-5.612714767456055,"911":1.5730352401733398,"912":-6.75422477722168,"913":4.092510223388672,"914":-5.008202075958252,"915":-9.46685791015625,"916":-14.498465538024902,"917":3.8966617584228516,"918":1.612297534942627,"919":6.3583526611328125,"920":4.879880905151367,"921":-6.139636516571045,"922":2.452808380126953,"923":-3.017571449279785,"924":0.4198034405708313,"925":4.645953178405762,"926":0.5324873924255371,"927":3.031351089477539,"928":-5.6890177726745605,"929":2.0049779415130615,"930":6.886281490325928,"931":12.727486610412598,"932":1.3807200193405151,"933":3.4665777683258057,"934":1.7614599466323853,"935":6.8864336013793945,"936":1.253547191619873,"937":7.213594913482666,"938":-6.420569896697998,"939":-4.057436943054199,"940":2.659503936767578,"941":-2.785078287124634,"942":-5.1561408042907715,"943":0.532158613204956,"944":-5.464192867279053,"945":4.3176374435424805,"946":3.0810883045196533,"947":-2.006789207458496,"948":3.2989883422851562,"949":7.127305030822754,"950":0.329214483499527,"951":3.444758176803589,"952":1.790554165840149,"953":-1.0956778526306152,"954":-2.180910587310791,"955":-1.1921449899673462,"956":0.10047533363103867,"957":-0.3121457099914551,"958":0.3136347830295563,"959":-1.9946873188018799,"960":1.5680675506591797,"961":0.9565859436988831,"962":-1.818379282951355,"963":1.049459457397461,"964":-0.3337675929069519,"965":-0.9485397934913635,"966":1.6868369579315186,"967":-0.45989301800727844,"968":-0.9314103126525879,"969":1.0577551126480103,"970":-2.5197575092315674,"971":-0.9662400484085083,"972":2.1549811363220215,"973":1.0753533840179443,"974":-0.31183767318725586,"975":-1.6259597539901733,"976":0.04850523918867111,"977":0.4817482531070709,"978":-1.6679917573928833,"979":1.8285013437271118,"980":-0.9660030603408813,"981":3.099508047103882,"982":2.341585397720337,"983":-0.6152245998382568,"984":0.9273856282234192,"985":1.58317232131958,"986":-0.7243509888648987,"987":-0.8963595628738403,"988":3.81349778175354,"989":3.709902286529541,"990":0.8749719262123108,"991":-1.391695261001587,"992":-5.431298732757568,"993":3.0114994049072266,"994":2.317662000656128,"995":4.8895416259765625,"996":0.32284820079803467,"997":-3.608306646347046,"998":0.7864364385604858,"999":4.116508483886719,"1000":-5.9931159019470215,"1001":0.016436440870165825,"1002":2.1989974975585938,"1003":2.3760621547698975,"1004":-0.6435827612876892,"1005":1.0374722480773926,"1006":-1.5297541618347168,"1007":-2.3121654987335205,"1008":-3.829813241958618,"1009":1.9066888093948364,"1010":-1.7697776556015015,"1011":2.048875331878662,"1012":-8.132535934448242,"1013":-6.416320323944092,"1014":-3.3078715801239014,"1015":-0.8304372429847717,"1016":2.3719024658203125,"1017":-0.9556128978729248,"1018":-3.5813963413238525,"1019":4.905961990356445,"1020":-2.4869844913482666,"1021":2.069422960281372,"1022":-4.300223350524902,"1023":1.0771421194076538,"1024":1.8888005018234253,"1025":0.25178664922714233,"1026":3.9331469535827637,"1027":-5.219409465789795,"1028":-0.7819244265556335,"1029":6.359350204467773,"1030":1.0795016288757324,"1031":3.2304177284240723,"1032":0.7287753820419312,"1033":1.3643878698349,"1034":-3.164903402328491,"1035":-5.740095615386963,"1036":-0.03971916064620018,"1037":4.637180328369141,"1038":2.6802823543548584,"1039":3.463040351867676,"1040":2.6520609855651855,"1041":1.4773825407028198,"1042":-3.2146220207214355,"1043":6.903385639190674,"1044":-3.332223653793335,"1045":-1.5789742469787598,"1046":-3.2794880867004395,"1047":-5.486419677734375,"1048":-2.3203020095825195,"1049":2.6516878604888916,"1050":-6.885562419891357,"1051":3.703399419784546,"1052":-6.418914318084717,"1053":0.038349904119968414,"1054":-2.0487594604492188,"1055":9.699352264404297,"1056":3.3797101974487305,"1057":-0.7359143495559692,"1058":-2.563460350036621,"1059":11.36612606048584,"1060":1.4289625883102417,"1061":7.417105674743652,"1062":-3.0563838481903076,"1063":2.518017292022705,"1064":3.2063944339752197,"1065":5.688102722167969,"1066":4.016325950622559,"1067":-6.454187393188477,"1068":-10.343474388122559,"1069":4.471128463745117,"1070":-0.9930188655853271,"1071":-0.12381394952535629,"1072":2.1836225986480713,"1073":0.9898782968521118,"1074":6.656466960906982,"1075":10.997880935668945,"1076":-8.547087669372559,"1077":7.171125888824463,"1078":-0.42640697956085205,"1079":-3.710822582244873,"1080":1.4939173460006714,"1081":4.887423515319824,"1082":-5.096138000488281,"1083":4.6251702308654785,"1084":-6.333717346191406,"1085":-2.8348753452301025,"1086":8.426548957824707,"1087":10.253235816955566,"1088":8.535103797912598,"1089":2.7305750846862793,"1090":2.136916399002075,"1091":5.941338062286377,"1092":3.8778557777404785,"1093":-3.3476452827453613,"1094":-5.304001808166504,"1095":0.11589702218770981,"1096":1.5180516242980957,"1097":-0.9668044447898865,"1098":-2.2268917560577393,"1099":-5.745858192443848,"1100":-1.4374761581420898,"1101":0.13930737972259521,"1102":0.9945021271705627,"1103":4.900171279907227,"1104":-2.2028098106384277,"1105":-0.4943910539150238,"1106":1.419517159461975,"1107":-5.649955749511719,"1108":1.272536277770996,"1109":-5.456647872924805,"1110":7.290060520172119,"1111":-3.8819022178649902,"1112":4.553782939910889,"1113":-1.4278886318206787,"1114":-0.5282962322235107,"1115":9.181676864624023,"1116":1.939401388168335,"1117":-6.15127420425415,"1118":2.9829447269439697,"1119":-5.022454738616943,"1120":2.4062001705169678,"1121":-7.950262069702148,"1122":4.459078311920166,"1123":0.07975010573863983,"1124":3.220241069793701,"1125":7.621713161468506,"1126":7.330996990203857,"1127":6.533541202545166,"1128":-6.5504021644592285,"1129":-8.099472999572754,"1130":-9.34964656829834,"1131":3.1744396686553955,"1132":0.989341139793396,"1133":-4.235904216766357,"1134":-4.043999671936035,"1135":-3.527243137359619,"1136":7.37500524520874,"1137":16.050579071044922,"1138":-10.894160270690918,"1139":9.900611877441406,"1140":6.93554162979126,"1141":-3.254892349243164,"1142":6.398693561553955,"1143":0.8408613801002502,"1144":4.477137565612793,"1145":11.12546443939209,"1146":5.150387287139893,"1147":-0.4808048903942108,"1148":-4.5301618576049805,"1149":-0.5579606294631958,"1150":8.921175956726074,"1151":0.21791329979896545,"1152":-1.303868055343628,"1153":-5.594441890716553,"1154":0.22809259593486786,"1155":-1.2765321731567383,"1156":1.254806399345398,"1157":-0.028808308765292168,"1158":3.253504514694214,"1159":-4.989028453826904,"1160":3.6627931594848633,"1161":-1.5849926471710205,"1162":-2.4686267375946045,"1163":0.8511777520179749,"1164":-8.870024681091309,"1165":-3.5212719440460205,"1166":-8.479745864868164,"1167":-0.6454551219940186,"1168":1.2877789735794067,"1169":0.8618494868278503,"1170":0.345472514629364,"1171":6.618261337280273,"1172":-8.915279388427734,"1173":5.8659138679504395,"1174":4.659848690032959,"1175":-2.8998684883117676,"1176":2.5838747024536133,"1177":1.9432990550994873,"1178":6.922558784484863,"1179":0.28172197937965393,"1180":-2.4067347049713135,"1181":9.279153823852539,"1182":-5.451786994934082,"1183":3.1077346801757812,"1184":3.7330820560455322,"1185":-1.13959801197052,"1186":5.300738334655762,"1187":7.865054607391357,"1188":-3.753924608230591,"1189":5.125013828277588,"1190":-0.08161380141973495,"1191":7.855022430419922,"1192":5.5932936668396,"1193":-8.120594024658203,"1194":7.489706039428711,"1195":11.106881141662598,"1196":-5.124573230743408,"1197":1.6435562372207642,"1198":0.27470406889915466,"1199":-1.9212902784347534,"1200":-3.1315784454345703,"1201":0.5335532426834106,"1202":-2.9914822578430176,"1203":4.98319673538208,"1204":3.103372097015381,"1205":4.194744110107422,"1206":-1.7531898021697998,"1207":9.260107040405273,"1208":2.628293752670288,"1209":-6.238924503326416,"1210":13.074684143066406,"1211":10.1486234664917,"1212":-2.156028985977173,"1213":10.938399314880371,"1214":3.5589218139648438,"1215":4.121347904205322,"1216":0.1758088320493698,"1217":3.2595877647399902,"1218":7.220411777496338,"1219":-2.5173263549804688,"1220":5.013862133026123,"1221":7.9702253341674805,"1222":-2.262777805328369,"1223":12.447108268737793,"1224":-6.652334690093994,"1225":-2.37607479095459,"1226":7.297207355499268,"1227":4.19721794128418,"1228":-3.67294979095459,"1229":-10.035791397094727,"1230":-3.9223990440368652,"1231":1.7676576375961304,"1232":-3.9594197273254395,"1233":-3.0533077716827393,"1234":0.6314523816108704,"1235":-6.831352710723877,"1236":2.5643043518066406,"1237":-3.564312696456909,"1238":6.806141376495361,"1239":-8.075550079345703,"1240":-4.154358386993408,"1241":-4.85098123550415,"1242":-3.295710563659668,"1243":4.316922664642334,"1244":6.804230690002441,"1245":-0.6125254034996033,"1246":4.878217697143555,"1247":-0.6202710270881653,"1248":-9.492669105529785,"1249":-1.7302755117416382,"1250":1.8453510999679565,"1251":-7.32982873916626,"1252":2.1621267795562744,"1253":-9.278800964355469,"1254":-0.9982832670211792,"1255":-2.1244399547576904,"1256":-4.682466983795166,"1257":-3.054018020629883,"1258":0.39565587043762207,"1259":-7.987448215484619,"1260":-0.7450911402702332,"1261":-1.6458195447921753,"1262":5.973496913909912,"1263":-0.9363206624984741,"1264":-2.696458101272583,"1265":-3.76177716255188,"1266":6.781329154968262,"1267":-4.278029918670654,"1268":-1.082364559173584,"1269":0.1444617658853531,"1270":-1.7146531343460083,"1271":4.034177780151367,"1272":1.8746936321258545,"1273":-0.19272786378860474,"1274":0.33735737204551697,"1275":3.547203302383423,"1276":-0.8381613492965698,"1277":4.1737542152404785,"1278":2.9080915451049805,"1279":4.5153656005859375,"1280":2.214489698410034,"1281":-5.094782829284668,"1282":2.7961437702178955,"1283":1.5890229940414429,"1284":-0.9401012659072876,"1285":-4.590628147125244,"1286":0.9363185167312622,"1287":-4.433348178863525,"1288":2.8352644443511963,"1289":2.904031276702881,"1290":2.9677841663360596,"1291":-0.5471302270889282,"1292":4.435482025146484,"1293":0.9838038682937622,"1294":5.14460563659668,"1295":3.3815650939941406,"1296":-7.161273956298828,"1297":1.256616234779358,"1298":-2.634394884109497,"1299":3.5485599040985107,"1300":-11.271682739257812,"1301":-4.7299370765686035,"1302":-3.9303677082061768,"1303":0.432980477809906,"1304":-6.263182163238525,"1305":-6.071449279785156,"1306":2.249091148376465,"1307":-0.16204358637332916,"1308":-0.8017838001251221,"1309":5.116304397583008,"1310":-3.8034021854400635,"1311":-5.785658359527588,"1312":0.4822569489479065,"1313":-2.4349005222320557,"1314":-3.3284730911254883,"1315":-6.888192176818848,"1316":-9.358722686767578,"1317":-2.468918800354004,"1318":-1.6493332386016846,"1319":0.8856920003890991,"1320":7.9311394691467285,"1321":3.9886698722839355,"1322":0.3380039632320404,"1323":2.8837761878967285,"1324":10.5233154296875,"1325":6.957045555114746,"1326":-2.0062897205352783,"1327":-6.082126140594482,"1328":-2.444561719894409,"1329":-7.4203338623046875,"1330":3.2994823455810547,"1331":2.0619499683380127,"1332":-12.30176830291748,"1333":-6.705939769744873,"1334":-2.2168796062469482,"1335":-6.643046855926514,"1336":-1.660658359527588,"1337":-3.4565067291259766,"1338":3.4039194583892822,"1339":1.6292245388031006,"1340":2.2960774898529053,"1341":-5.451817989349365,"1342":-1.7535256147384644,"1343":-10.94771957397461,"1344":-2.826495409011841,"1345":1.858790397644043,"1346":-2.855520725250244,"1347":-2.686192035675049,"1348":6.326969623565674,"1349":7.734104633331299,"1350":2.3823318481445312,"1351":17.913188934326172,"1352":0.9102169275283813,"1353":-6.67933988571167,"1354":1.091239333152771,"1355":-9.909217834472656,"1356":-0.3232668340206146,"1357":-2.7736003398895264,"1358":-1.0095587968826294,"1359":-4.054076671600342,"1360":-11.143732070922852,"1361":7.611980438232422,"1362":3.2041444778442383,"1363":-8.886648178100586,"1364":-5.250032901763916,"1365":-13.584600448608398,"1366":-8.896234512329102,"1367":-7.349730491638184,"1368":0.3375990390777588,"1369":-0.8116180300712585,"1370":-1.8063113689422607,"1371":3.1082849502563477,"1372":1.481647253036499,"1373":1.0280795097351074,"1374":-1.9933058023452759,"1375":-2.198958396911621,"1376":0.6615667343139648,"1377":0.6778837442398071,"1378":-1.830754280090332,"1379":-0.14576098322868347,"1380":3.3502933979034424,"1381":1.135251522064209,"1382":-2.4954874515533447,"1383":-1.6573503017425537,"1384":-1.7087758779525757,"1385":1.266446590423584,"1386":1.4734044075012207,"1387":1.5607616901397705,"1388":2.8342552185058594,"1389":0.0203620046377182,"1390":-0.8021303415298462,"1391":-1.8258205652236938,"1392":1.651917815208435,"1393":0.638791024684906,"1394":1.9594752788543701,"1395":-0.3330931067466736,"1396":2.0274674892425537,"1397":2.472323417663574,"1398":2.6708128452301025,"1399":-1.5552338361740112,"1400":0.9729434251785278,"1401":0.5661227107048035,"1402":2.186990976333618,"1403":0.9983522891998291,"1404":0.28197768330574036,"1405":0.09537646174430847,"1406":-0.44730791449546814,"1407":-0.8601007461547852,"1408":-2.8024909496307373,"1409":2.1524291038513184,"1410":0.9470511674880981,"1411":-0.03433810919523239,"1412":1.0296798944473267,"1413":3.251908779144287,"1414":-1.7641291618347168,"1415":-1.2210184335708618,"1416":-0.3838759660720825,"1417":-2.414665937423706,"1418":-0.3310125768184662,"1419":1.8052330017089844,"1420":0.21226418018341064,"1421":0.5036243796348572,"1422":2.9610841274261475,"1423":0.06874240934848785,"1424":-1.5424795150756836,"1425":-3.0473787784576416,"1426":0.9336509108543396,"1427":0.9030227065086365,"1428":-2.4922921657562256,"1429":-1.6628526449203491,"1430":-2.584503650665283,"1431":1.2747117280960083,"1432":1.259360909461975,"1433":0.6284052133560181,"1434":-0.09851589053869247,"1435":1.1660044193267822,"1436":1.1479594707489014,"1437":0.7957243323326111,"1438":2.42556095123291,"1439":0.6085301637649536,"1440":-0.11436682939529419,"1441":1.3290834426879883,"1442":0.4140269160270691,"1443":-0.20037224888801575,"1444":-0.008973694406449795,"1445":0.010470801964402199,"1446":0.041350919753313065,"1447":0.052092887461185455,"1448":0.060774803161621094,"1449":-0.05856047570705414,"1450":-0.0436796173453331,"1451":-0.04515867307782173,"1452":0.04831976443529129,"1453":0.05357005447149277,"1454":-0.030000079423189163,"1455":-0.06324127316474915,"1456":-0.02125825360417366,"1457":0.04232911020517349,"1458":0.051600828766822815,"1459":0.016712786629796028,"1460":-0.02936449460685253,"1461":0.05276709794998169,"1462":-0.05736108869314194,"1463":-0.045525070279836655,"1464":-0.020496798679232597,"1465":0.02249719575047493,"1466":0.05911720544099808,"1467":-0.025492198765277863,"1468":0.048426903784275055,"1469":0.03877431899309158,"1470":0.03522516414523125,"1471":0.04154441878199577,"1472":0.02865670807659626,"1473":-0.018619436770677567,"1474":-0.039102524518966675,"1475":-0.003266531741246581,"1476":0.0464668795466423,"1477":-0.040431272238492966,"1478":-0.04514693841338158,"1479":0.05869799479842186,"1480":-0.02073391154408455,"1481":-0.02459264174103737}},"hiddenLayers":[{"inputMatrix":{"rows":20,"columns":38,"weights":{"0":-1.4677287340164185,"1":0.6278675198554993,"2":-2.5114634037017822,"3":-0.34889277815818787,"4":0.6960033774375916,"5":-2.1791017055511475,"6":0.32616642117500305,"7":1.1232099533081055,"8":-0.43926945328712463,"9":-0.7594407200813293,"10":-0.4385528266429901,"11":-2.862380027770996,"12":1.3453580141067505,"13":1.8208463191986084,"14":0.11774952709674835,"15":0.30564555525779724,"16":0.758438766002655,"17":-1.6499863862991333,"18":0.2379646897315979,"19":2.0553486347198486,"20":0.4680483639240265,"21":1.47501540184021,"22":2.805480718612671,"23":-1.1587482690811157,"24":0.10433689504861832,"25":1.2497895956039429,"26":1.1085996627807617,"27":0.9780504703521729,"28":-0.9415745139122009,"29":0.17907759547233582,"30":-1.3726357221603394,"31":1.6502346992492676,"32":1.8455674648284912,"33":-1.5866340398788452,"34":1.2381702661514282,"35":1.9126790761947632,"36":-0.06365650147199631,"37":0.2987218201160431,"38":-0.027371058240532875,"39":-0.9589358568191528,"40":-0.7359657883644104,"41":-2.078169345855713,"42":1.7947067022323608,"43":-0.9574320912361145,"44":-1.126500129699707,"45":-3.1066627502441406,"46":0.9810479283332825,"47":-1.4526034593582153,"48":-0.9784550070762634,"49":-1.5212568044662476,"50":1.6421905755996704,"51":-1.2197704315185547,"52":-1.8406742811203003,"53":-0.47159940004348755,"54":-0.6953710317611694,"55":-1.1224167346954346,"56":0.8117696046829224,"57":1.6615029573440552,"58":0.591487467288971,"59":1.5327757596969604,"60":0.20784048736095428,"61":-1.117978572845459,"62":3.5165014266967773,"63":1.1014491319656372,"64":-1.0540310144424438,"65":-2.098665237426758,"66":-0.42488670349121094,"67":-2.788236618041992,"68":-0.2028525024652481,"69":0.12570475041866302,"70":-2.1084530353546143,"71":-2.000135660171509,"72":1.2058310508728027,"73":1.2832205295562744,"74":-1.056792974472046,"75":1.476877212524414,"76":0.2009904384613037,"77":0.4696137607097626,"78":2.8960862159729004,"79":1.6048921346664429,"80":-1.2062811851501465,"81":-1.3554320335388184,"82":-0.3084765672683716,"83":-3.589421033859253,"84":1.430753231048584,"85":1.2988381385803223,"86":-1.3266897201538086,"87":0.5789316296577454,"88":0.14419929683208466,"89":0.3199557662010193,"90":-0.711992621421814,"91":-3.2656142711639404,"92":-2.388301134109497,"93":1.3513234853744507,"94":-2.0452792644500732,"95":-0.03191782534122467,"96":-1.5184301137924194,"97":-4.572192192077637,"98":-1.907548189163208,"99":2.449167013168335,"100":2.0798940658569336,"101":1.1961067914962769,"102":1.6784083843231201,"103":0.6143231987953186,"104":-1.3139889240264893,"105":-0.0485258549451828,"106":0.6609645485877991,"107":-1.5248264074325562,"108":2.181757688522339,"109":0.010488946922123432,"110":1.7663767337799072,"111":0.7071319818496704,"112":1.5604221820831299,"113":-0.3857412338256836,"114":0.6713782548904419,"115":-1.44318687915802,"116":-0.5109982490539551,"117":0.7565959095954895,"118":0.13093620538711548,"119":1.023964762687683,"120":-3.1214654445648193,"121":-2.039586305618286,"122":1.9117846488952637,"123":1.1224197149276733,"124":-0.3062933087348938,"125":1.2194640636444092,"126":2.7121737003326416,"127":-0.1752321869134903,"128":1.358356237411499,"129":1.022548794746399,"130":-0.871735692024231,"131":0.5127812623977661,"132":0.013459752313792706,"133":0.15751789510250092,"134":-0.32382702827453613,"135":0.11886292695999146,"136":-0.40644410252571106,"137":2.2920315265655518,"138":1.0293940305709839,"139":1.1201854944229126,"140":-0.03772667050361633,"141":1.425445318222046,"142":-1.4284440279006958,"143":-0.03473537787795067,"144":3.661996603012085,"145":-6.339050769805908,"146":-0.26716384291648865,"147":-0.68309485912323,"148":-0.0025927810929715633,"149":-0.4317256510257721,"150":-1.3810702562332153,"151":0.5188062787055969,"152":0.6186813712120056,"153":0.23222096264362335,"154":-1.76591956615448,"155":-0.9859716892242432,"156":-1.2325693368911743,"157":-2.2192931175231934,"158":1.196775197982788,"159":-0.8573582768440247,"160":1.0515142679214478,"161":-0.3336862027645111,"162":2.6405327320098877,"163":-0.09106583148241043,"164":-3.411924362182617,"165":0.7639244198799133,"166":-0.32068192958831787,"167":0.009595352225005627,"168":1.3204121589660645,"169":-0.4171023964881897,"170":2.486130714416504,"171":0.21617427468299866,"172":-1.4673359394073486,"173":2.136080503463745,"174":0.1224723681807518,"175":0.3596116900444031,"176":-1.3083136081695557,"177":-1.6563550233840942,"178":-0.2383485585451126,"179":-0.16088978946208954,"180":-0.3028999865055084,"181":0.4846554696559906,"182":-2.314094066619873,"183":2.694347858428955,"184":-0.7991894483566284,"185":-1.8068116903305054,"186":-0.31744328141212463,"187":-0.43821677565574646,"188":-1.2657748460769653,"189":-0.7809582948684692,"190":3.9052696228027344,"191":-1.1376780271530151,"192":0.7772758603096008,"193":-1.0345717668533325,"194":-1.143051266670227,"195":-2.7532472610473633,"196":0.9043229818344116,"197":0.3178788423538208,"198":-0.2244834303855896,"199":1.3054842948913574,"200":2.1475069522857666,"201":3.062220573425293,"202":-3.2790749073028564,"203":-1.3353890180587769,"204":0.7105578184127808,"205":-0.9418147802352905,"206":1.336591124534607,"207":4.324501037597656,"208":-0.317792683839798,"209":-0.36400195956230164,"210":-4.0994415283203125,"211":0.6696165204048157,"212":-1.9882277250289917,"213":-1.3741623163223267,"214":-2.610124111175537,"215":2.2871289253234863,"216":0.34740495681762695,"217":-0.7528741359710693,"218":2.1969566345214844,"219":-1.1643143892288208,"220":-0.3492834270000458,"221":2.684670925140381,"222":-0.3460693955421448,"223":1.2994290590286255,"224":-1.583945631980896,"225":0.7746755480766296,"226":-0.5610910654067993,"227":-1.0841091871261597,"228":-1.1922121047973633,"229":0.2111053615808487,"230":-0.9033552408218384,"231":-0.7349241971969604,"232":0.21918532252311707,"233":-1.7890563011169434,"234":1.2020014524459839,"235":0.254483699798584,"236":0.5028759241104126,"237":-0.3128046691417694,"238":1.0723304748535156,"239":-2.3484103679656982,"240":-1.5020636320114136,"241":-1.9382158517837524,"242":-1.0165550708770752,"243":-1.5505563020706177,"244":-0.3278057277202606,"245":-2.4882633686065674,"246":2.1359801292419434,"247":-0.42681610584259033,"248":1.9371520280838013,"249":1.1363340616226196,"250":1.1532607078552246,"251":-0.8403072953224182,"252":0.7137379050254822,"253":-1.4778852462768555,"254":-0.6428632140159607,"255":-0.8695704340934753,"256":-0.43851134181022644,"257":-1.7714260816574097,"258":-2.2629032135009766,"259":3.0307600498199463,"260":-0.07556462287902832,"261":-2.0998523235321045,"262":1.054230809211731,"263":-1.3846752643585205,"264":-2.4291164875030518,"265":0.08942064642906189,"266":1.2670586109161377,"267":-1.612446904182434,"268":2.3534224033355713,"269":3.2487258911132812,"270":-1.1694766283035278,"271":1.760688304901123,"272":1.724292278289795,"273":2.560534715652466,"274":-1.6198794841766357,"275":1.8438920974731445,"276":-2.5627214908599854,"277":0.8008894920349121,"278":-0.3338654637336731,"279":-2.237250804901123,"280":1.002806305885315,"281":0.7245250344276428,"282":-1.403428077697754,"283":0.6928297877311707,"284":-0.19321633875370026,"285":-4.019426345825195,"286":-0.012141657061874866,"287":-0.8802804946899414,"288":-2.386624813079834,"289":-1.1087415218353271,"290":-0.8878336548805237,"291":-0.671750545501709,"292":1.046736717224121,"293":-0.13173145055770874,"294":0.38477590680122375,"295":1.309857964515686,"296":2.1663036346435547,"297":0.3177822232246399,"298":-0.541041374206543,"299":1.839367389678955,"300":0.29080748558044434,"301":-1.2538765668869019,"302":2.8713064193725586,"303":-1.3281301259994507,"304":0.16127550601959229,"305":-2.2473127841949463,"306":-0.28968214988708496,"307":-0.2930600047111511,"308":-1.3532119989395142,"309":-2.214902400970459,"310":-0.6049478054046631,"311":0.13623517751693726,"312":2.392930030822754,"313":0.002526947297155857,"314":0.6484240293502808,"315":-0.7692746520042419,"316":2.832508087158203,"317":3.3330135345458984,"318":1.9609516859054565,"319":-0.5954614877700806,"320":0.30808091163635254,"321":0.6898865103721619,"322":0.5089226365089417,"323":1.6156378984451294,"324":1.4692695140838623,"325":0.9194471836090088,"326":-1.8160935640335083,"327":-1.6177748441696167,"328":0.7985684871673584,"329":1.246258020401001,"330":1.901641845703125,"331":-1.0946969985961914,"332":0.39545968174934387,"333":0.1268160492181778,"334":-0.6367581486701965,"335":-0.17114582657814026,"336":2.0236399173736572,"337":-1.4266613721847534,"338":-0.5902277827262878,"339":1.5536874532699585,"340":2.002552032470703,"341":2.3366100788116455,"342":0.8585186004638672,"343":1.5697332620620728,"344":1.9840589761734009,"345":2.6270601749420166,"346":-3.2503044605255127,"347":-1.1722371578216553,"348":0.4998151361942291,"349":2.8884103298187256,"350":-0.7955537438392639,"351":4.420048236846924,"352":1.9581660032272339,"353":2.639580726623535,"354":-2.3183629512786865,"355":-0.5428822636604309,"356":0.2610451281070709,"357":1.0997263193130493,"358":-2.32539963722229,"359":-0.2817918062210083,"360":-2.4764013290405273,"361":-0.12645114958286285,"362":-0.33903300762176514,"363":1.0714737176895142,"364":-1.9535239934921265,"365":-0.16648206114768982,"366":-0.963595449924469,"367":-2.0581493377685547,"368":0.3884144425392151,"369":-1.7844679355621338,"370":1.5482323169708252,"371":-1.5733062028884888,"372":0.03989700973033905,"373":1.3170711994171143,"374":2.2387940883636475,"375":2.123063087463379,"376":-1.0985074043273926,"377":-1.185133695602417,"378":-0.7119053602218628,"379":0.08421563357114792,"380":1.464186429977417,"381":0.5137258172035217,"382":-0.39173609018325806,"383":-0.6075536012649536,"384":-4.611553192138672,"385":-1.998596429824829,"386":-1.090482473373413,"387":-0.10381363332271576,"388":3.6729204654693604,"389":0.6059616804122925,"390":0.4621862769126892,"391":0.23134636878967285,"392":-0.9634596109390259,"393":0.5292065143585205,"394":-0.6823993921279907,"395":-0.03114701248705387,"396":0.5095792412757874,"397":0.1320885419845581,"398":-0.2776164710521698,"399":2.809758186340332,"400":-0.06081675365567207,"401":0.41098523139953613,"402":-0.0314243920147419,"403":3.561490297317505,"404":-0.3576137125492096,"405":-0.09186094254255295,"406":-0.07661924511194229,"407":-2.257819652557373,"408":0.2752092778682709,"409":-0.6827033162117004,"410":-1.3807047605514526,"411":0.3569667935371399,"412":0.05130672827363014,"413":-1.1612392663955688,"414":1.080514669418335,"415":-0.4153863787651062,"416":0.48113954067230225,"417":0.04798594117164612,"418":-1.1430306434631348,"419":-0.9040442705154419,"420":0.7826645374298096,"421":0.19208994507789612,"422":-0.01588565483689308,"423":0.906665563583374,"424":-0.35646602511405945,"425":0.8711791634559631,"426":-1.2913057804107666,"427":-0.4041993319988251,"428":-4.0122456550598145,"429":-0.8731849789619446,"430":0.30277007818222046,"431":0.44948479533195496,"432":0.6892499327659607,"433":-0.2479853630065918,"434":-0.21599602699279785,"435":0.07277249544858932,"436":-1.1913844347000122,"437":1.406045913696289,"438":2.3042709827423096,"439":-1.6884397268295288,"440":-0.9280048608779907,"441":-0.28019392490386963,"442":0.05392688140273094,"443":0.34160491824150085,"444":-0.09205882996320724,"445":2.617356061935425,"446":0.6808406710624695,"447":1.409475564956665,"448":5.584692001342773,"449":-1.094063401222229,"450":1.36607027053833,"451":1.9229559898376465,"452":0.15404725074768066,"453":0.6845208406448364,"454":1.120008111000061,"455":-0.09745609760284424,"456":0.012344211339950562,"457":-2.545576333999634,"458":0.9867188334465027,"459":1.4261894226074219,"460":-2.4993157386779785,"461":0.15201333165168762,"462":-1.5486369132995605,"463":-1.351037621498108,"464":0.34988513588905334,"465":0.105848029255867,"466":-0.3223022520542145,"467":-0.4263566732406616,"468":2.2833752632141113,"469":-1.627398133277893,"470":2.0145089626312256,"471":1.4045772552490234,"472":-1.1291800737380981,"473":1.1427695751190186,"474":1.9826034307479858,"475":0.3461610674858093,"476":0.7985014915466309,"477":1.0687751770019531,"478":-0.783392071723938,"479":1.4261012077331543,"480":-0.061640385538339615,"481":0.4222255051136017,"482":0.09117858856916428,"483":0.9052016139030457,"484":1.0183289051055908,"485":1.1073670387268066,"486":2.01904559135437,"487":-2.7478041648864746,"488":-1.2225364446640015,"489":1.1924747228622437,"490":-0.6877307295799255,"491":-0.12927834689617157,"492":1.0085819959640503,"493":-0.29147252440452576,"494":-0.16772842407226562,"495":-0.3712335228919983,"496":0.9259886145591736,"497":-2.0093486309051514,"498":0.39592722058296204,"499":-0.7582035660743713,"500":2.2596163749694824,"501":2.068385124206543,"502":-3.3156886100769043,"503":-1.6267991065979004,"504":-0.21879126131534576,"505":-0.27587297558784485,"506":-1.7571451663970947,"507":-0.6541701555252075,"508":-1.412360429763794,"509":-0.006421057973057032,"510":1.2132419347763062,"511":-2.135178804397583,"512":-0.22379063069820404,"513":0.49848672747612,"514":0.28272899985313416,"515":0.27930375933647156,"516":1.0867863893508911,"517":-5.143409729003906,"518":-1.5418537855148315,"519":-2.7327687740325928,"520":-0.42350244522094727,"521":-0.8487220406532288,"522":3.917675256729126,"523":1.3590739965438843,"524":-0.4094577431678772,"525":3.0155584812164307,"526":-1.0769705772399902,"527":-0.9276489615440369,"528":0.291934996843338,"529":-0.45698779821395874,"530":-0.48011136054992676,"531":-0.7291042804718018,"532":0.16413691639900208,"533":2.148712396621704,"534":-0.4268516004085541,"535":0.6077673435211182,"536":-1.7798734903335571,"537":0.9542398452758789,"538":-0.16179229319095612,"539":-1.8195273876190186,"540":-0.7207889556884766,"541":0.3122744858264923,"542":2.2838549613952637,"543":3.3264307975769043,"544":-2.264338493347168,"545":0.6405583620071411,"546":0.8965819478034973,"547":1.1249483823776245,"548":-1.6276819705963135,"549":1.207132339477539,"550":-0.12521150708198547,"551":0.3354387581348419,"552":-2.599306106567383,"553":-0.8729246854782104,"554":1.0280739068984985,"555":3.6007156372070312,"556":0.1749059408903122,"557":1.8580421209335327,"558":-0.042471159249544144,"559":0.5785661935806274,"560":-3.227195978164673,"561":-0.703920304775238,"562":0.7921015620231628,"563":-1.1798853874206543,"564":-0.1307908594608307,"565":1.4783419370651245,"566":-1.0824276208877563,"567":-0.16485993564128876,"568":1.8283913135528564,"569":-0.1585337072610855,"570":-3.4367244243621826,"571":-1.2982232570648193,"572":-0.3436535596847534,"573":-0.8183571696281433,"574":0.04765576496720314,"575":-0.7830248475074768,"576":-0.823772132396698,"577":0.6580230593681335,"578":-0.026503711938858032,"579":0.35642072558403015,"580":-0.6562748551368713,"581":-2.45345139503479,"582":1.3607885837554932,"583":0.7051416039466858,"584":1.1991982460021973,"585":-1.454545497894287,"586":-0.7120864391326904,"587":-2.093046188354492,"588":-1.386481761932373,"589":-0.49591851234436035,"590":0.3533311188220978,"591":0.28899598121643066,"592":-2.3317348957061768,"593":0.45643150806427,"594":-0.2183895856142044,"595":2.5552170276641846,"596":-1.0093976259231567,"597":-0.4377893805503845,"598":-0.5977999567985535,"599":-0.46723228693008423,"600":1.8398221731185913,"601":-1.0629923343658447,"602":-0.602681577205658,"603":-0.7842604517936707,"604":1.3609336614608765,"605":0.601344108581543,"606":-1.2031344175338745,"607":1.7906585931777954,"608":-1.0727335214614868,"609":0.829187273979187,"610":-0.2716968059539795,"611":1.6554698944091797,"612":-1.4041800498962402,"613":2.0494260787963867,"614":-2.442781686782837,"615":-0.16191628575325012,"616":1.9567047357559204,"617":0.7782363891601562,"618":0.055775366723537445,"619":0.35957401990890503,"620":3.1408815383911133,"621":2.457228899002075,"622":2.9116172790527344,"623":1.113669991493225,"624":-1.124756932258606,"625":0.9111708402633667,"626":-0.3317681550979614,"627":-0.13307125866413116,"628":-0.726813018321991,"629":-1.6920299530029297,"630":-1.1597673892974854,"631":2.0440480709075928,"632":0.46782514452934265,"633":0.9236016273498535,"634":-1.101199746131897,"635":0.4367745518684387,"636":-1.3394867181777954,"637":-0.5638806223869324,"638":1.4431848526000977,"639":-3.2711617946624756,"640":0.9589988589286804,"641":2.0745983123779297,"642":0.5295758247375488,"643":1.9233250617980957,"644":-0.21876846253871918,"645":1.8703817129135132,"646":-0.16930438578128815,"647":0.6001741886138916,"648":0.7722293734550476,"649":-0.5485249161720276,"650":-0.6952279806137085,"651":-0.4690777361392975,"652":-0.5264202952384949,"653":-2.88549542427063,"654":2.166069269180298,"655":-0.06459639221429825,"656":-0.2226669192314148,"657":0.7410908341407776,"658":-0.7247482538223267,"659":2.6523168087005615,"660":0.1746588945388794,"661":-3.235337734222412,"662":-1.0491572618484497,"663":-0.3181196451187134,"664":-1.1139426231384277,"665":1.072968602180481,"666":1.244160771369934,"667":-0.09663591533899307,"668":0.8699002265930176,"669":1.758683204650879,"670":2.6935319900512695,"671":0.11226549744606018,"672":-0.32551315426826477,"673":-2.3114402294158936,"674":1.2631645202636719,"675":1.0390849113464355,"676":-0.48834851384162903,"677":-0.8856013417243958,"678":1.7695772647857666,"679":-0.5761486291885376,"680":2.405527353286743,"681":0.7822457551956177,"682":0.17330391705036163,"683":2.0461173057556152,"684":-0.8504891991615295,"685":-1.4072351455688477,"686":-0.550582766532898,"687":0.8631604313850403,"688":0.8294768333435059,"689":1.0650690793991089,"690":-0.7280434370040894,"691":1.6890641450881958,"692":-2.772007942199707,"693":0.5889827609062195,"694":-0.7211868762969971,"695":-1.2027785778045654,"696":1.3281450271606445,"697":-1.1092889308929443,"698":-1.2583879232406616,"699":0.6139136552810669,"700":-1.7175588607788086,"701":-1.7696141004562378,"702":-0.37275832891464233,"703":-1.1970815658569336,"704":0.5468740463256836,"705":-0.8109329342842102,"706":-0.11695069074630737,"707":-1.8036376237869263,"708":-0.38520917296409607,"709":1.9833462238311768,"710":-0.2996366620063782,"711":2.7501027584075928,"712":2.2634122371673584,"713":-0.8534026741981506,"714":2.6179747581481934,"715":-0.7067406177520752,"716":0.6450219750404358,"717":-0.1679181605577469,"718":-0.22469647228717804,"719":-2.162973165512085,"720":0.34953269362449646,"721":-1.0568681955337524,"722":2.4449071884155273,"723":-0.8128176331520081,"724":1.8359323740005493,"725":0.032826848328113556,"726":-1.0290995836257935,"727":-0.38580504059791565,"728":0.5104236006736755,"729":-0.6907573938369751,"730":-1.54930579662323,"731":2.006805658340454,"732":-0.8057894706726074,"733":1.6592801809310913,"734":-3.668483018875122,"735":-0.06319551914930344,"736":-0.935796320438385,"737":-2.2780027389526367,"738":1.176746129989624,"739":-0.08305525779724121,"740":-0.311042457818985,"741":-1.4635288715362549,"742":0.10164923965930939,"743":-2.4938805103302,"744":-1.9509940147399902,"745":-0.70440274477005,"746":-1.5432435274124146,"747":-0.7305617332458496,"748":-0.3076417148113251,"749":-1.432449460029602,"750":1.5717787742614746,"751":1.3001254796981812,"752":-0.8332344889640808,"753":2.474310874938965,"754":-0.5781715512275696,"755":-0.45004767179489136,"756":0.7071247696876526,"757":0.04633296653628349,"758":0.7588127851486206,"759":0.4584723711013794}},"inputHidden":{"rows":20,"columns":20,"weights":{"0":-2.3750851154327393,"1":-2.001901626586914,"2":-1.1710023880004883,"3":1.364555835723877,"4":0.11916598677635193,"5":-0.37938007712364197,"6":-1.5249338150024414,"7":0.3515666425228119,"8":-0.08936455845832825,"9":0.44673314690589905,"10":2.003977060317993,"11":0.7701767086982727,"12":0.7310295104980469,"13":1.8110971450805664,"14":-0.6396926045417786,"15":-1.3805936574935913,"16":1.2025058269500732,"17":-0.47857698798179626,"18":0.8304240703582764,"19":-0.9124505519866943,"20":1.284401535987854,"21":-3.4361419677734375,"22":-0.3189244270324707,"23":1.960882544517517,"24":2.0576353073120117,"25":-2.8466532230377197,"26":2.170745611190796,"27":-2.3873531818389893,"28":1.1268316507339478,"29":1.9909460544586182,"30":-0.9650543928146362,"31":1.18886137008667,"32":-1.0899165868759155,"33":0.28451335430145264,"34":-0.1406814008951187,"35":0.7730969786643982,"36":-0.7119819521903992,"37":-0.5374947786331177,"38":0.06521664559841156,"39":1.4534885883331299,"40":1.1789852380752563,"41":1.1850470304489136,"42":0.3005795180797577,"43":-0.05014490708708763,"44":-2.068366289138794,"45":-0.9395481944084167,"46":1.1871161460876465,"47":0.3018667995929718,"48":0.666131854057312,"49":-1.1838184595108032,"50":0.2748396098613739,"51":1.1104989051818848,"52":-1.1070226430892944,"53":-0.5474100708961487,"54":-0.3205510675907135,"55":-0.5284599661827087,"56":-0.5441170930862427,"57":0.09926190972328186,"58":1.0123990774154663,"59":-1.020017147064209,"60":-2.4505486488342285,"61":4.17275857925415,"62":4.211345195770264,"63":-1.9344279766082764,"64":-2.6185200214385986,"65":-0.8830145597457886,"66":3.7751827239990234,"67":-2.1675758361816406,"68":-0.5166093707084656,"69":1.60994291305542,"70":-0.153053879737854,"71":1.2599555253982544,"72":1.0395573377609253,"73":-0.6868821382522583,"74":-3.981140613555908,"75":1.7577627897262573,"76":-1.362900972366333,"77":-0.7629609704017639,"78":0.19812355935573578,"79":3.671211004257202,"80":1.2792236804962158,"81":-1.444888710975647,"82":-0.1388663500547409,"83":0.11969660222530365,"84":0.8080886006355286,"85":-0.4659562110900879,"86":-0.21931126713752747,"87":0.26569634675979614,"88":1.9636385440826416,"89":0.29300007224082947,"90":0.5715768337249756,"91":0.46717342734336853,"92":-1.0848546028137207,"93":1.843438982963562,"94":-5.389207363128662,"95":-2.111969232559204,"96":0.10010730475187302,"97":-2.5526235103607178,"98":-0.5787819027900696,"99":-0.36773234605789185,"100":-1.0082511901855469,"101":-0.9967615604400635,"102":1.3396291732788086,"103":0.2577649652957916,"104":-0.12750740349292755,"105":-1.5764062404632568,"106":1.8770971298217773,"107":0.0497322678565979,"108":0.9006857872009277,"109":-1.167936086654663,"110":-0.2513165771961212,"111":-1.1196306943893433,"112":-2.2661936283111572,"113":-1.5682213306427002,"114":-0.6194373965263367,"115":1.0574109554290771,"116":-1.097532868385315,"117":-0.43810948729515076,"118":-1.2747392654418945,"119":-0.5875684022903442,"120":0.491136759519577,"121":0.4469192922115326,"122":0.6800631880760193,"123":-1.0006858110427856,"124":-0.5452664494514465,"125":3.7169926166534424,"126":1.391413927078247,"127":2.1866772174835205,"128":-1.5393680334091187,"129":-4.606037139892578,"130":0.2780262231826782,"131":2.0282251834869385,"132":2.5246241092681885,"133":-1.0956072807312012,"134":1.4121131896972656,"135":0.20114389061927795,"136":-0.673970639705658,"137":1.211820125579834,"138":0.34998267889022827,"139":-1.529259204864502,"140":-0.36659708619117737,"141":0.7665740847587585,"142":1.5013583898544312,"143":-0.4546829164028168,"144":1.1996933221817017,"145":0.6567697525024414,"146":0.5591923594474792,"147":1.2801196575164795,"148":-0.8030956387519836,"149":-0.6452061533927917,"150":-0.16522930562496185,"151":1.373984694480896,"152":-0.587192714214325,"153":0.8789680600166321,"154":0.39604705572128296,"155":2.0676352977752686,"156":-1.0383480787277222,"157":-0.3302958011627197,"158":-0.7206713557243347,"159":0.5869318246841431,"160":-0.21573112905025482,"161":-3.0845537185668945,"162":-0.38261449337005615,"163":0.016450151801109314,"164":-3.0996131896972656,"165":-0.1587013155221939,"166":-1.2138415575027466,"167":-0.40035930275917053,"168":-1.3149465322494507,"169":-1.684919834136963,"170":0.7191054821014404,"171":0.3241957426071167,"172":1.67120361328125,"173":-0.9040274620056152,"174":-1.5216827392578125,"175":0.2962121367454529,"176":-1.486620306968689,"177":0.8457388281822205,"178":1.9566172361373901,"179":-1.4067496061325073,"180":-0.25599396228790283,"181":-2.0301380157470703,"182":-2.9358601570129395,"183":-0.01500729564577341,"184":-2.5604331493377686,"185":2.2015604972839355,"186":4.490594387054443,"187":0.42450711131095886,"188":0.07317350804805756,"189":-0.305647075176239,"190":-1.0921589136123657,"191":-0.18967129290103912,"192":-1.3040889501571655,"193":0.7933534383773804,"194":-1.2572669982910156,"195":-0.4620358645915985,"196":3.4605956077575684,"197":1.1717449426651,"198":-2.0552165508270264,"199":-0.09152570366859436,"200":-1.8134242296218872,"201":0.735343337059021,"202":-2.9900121688842773,"203":-1.571676254272461,"204":-2.790163993835449,"205":-4.023188591003418,"206":-1.6174578666687012,"207":-1.4049675464630127,"208":0.6710508465766907,"209":1.763884425163269,"210":0.29280760884284973,"211":-3.5675370693206787,"212":0.026902740821242332,"213":1.6980037689208984,"214":1.6507047414779663,"215":-4.064754962921143,"216":2.2622716426849365,"217":-2.3868331909179688,"218":-2.5359485149383545,"219":0.42633485794067383,"220":0.06819363683462143,"221":0.9329676032066345,"222":-0.947302520275116,"223":-4.594231128692627,"224":0.3434825837612152,"225":2.526885747909546,"226":1.6623022556304932,"227":1.5186793804168701,"228":0.8498700857162476,"229":0.4228678345680237,"230":0.7344825863838196,"231":-0.6790664792060852,"232":0.16335150599479675,"233":-0.3628709018230438,"234":1.7496665716171265,"235":-0.9071508646011353,"236":-3.1856672763824463,"237":-1.4942266941070557,"238":-0.07203467935323715,"239":-1.1983758211135864,"240":-1.7265820503234863,"241":-1.1732728481292725,"242":0.2192094773054123,"243":3.331019163131714,"244":1.9938359260559082,"245":1.4501311779022217,"246":-0.7936537861824036,"247":1.856909990310669,"248":0.10675443708896637,"249":-3.682180166244507,"250":0.11468543112277985,"251":-0.8673561215400696,"252":-0.5178726315498352,"253":-1.5072392225265503,"254":4.8077712059021,"255":-1.7884331941604614,"256":1.903075098991394,"257":1.8653523921966553,"258":-0.1225060373544693,"259":-0.5368096828460693,"260":-3.449929714202881,"261":-0.6475185751914978,"262":-1.3100082874298096,"263":-0.9639667272567749,"264":-1.0604091882705688,"265":1.413508415222168,"266":1.1903016567230225,"267":0.5533488392829895,"268":-0.9144162535667419,"269":-0.34471678733825684,"270":1.9950311183929443,"271":-2.3455610275268555,"272":-0.915207028388977,"273":4.868570327758789,"274":-0.9074203372001648,"275":4.520564079284668,"276":0.8157655000686646,"277":-2.5380613803863525,"278":0.603187084197998,"279":3.200223207473755,"280":-1.542149305343628,"281":0.21475450694561005,"282":-0.32782450318336487,"283":-1.003482460975647,"284":2.016806125640869,"285":1.8437472581863403,"286":0.35478436946868896,"287":0.2689793109893799,"288":2.3186755180358887,"289":-3.738731861114502,"290":-0.015879634767770767,"291":0.9291593432426453,"292":-2.100529909133911,"293":0.5405081510543823,"294":-0.6454029083251953,"295":0.10246734321117401,"296":-1.0056016445159912,"297":1.0920394659042358,"298":0.03655276820063591,"299":-2.327267646789551,"300":-1.3151663541793823,"301":-0.9876059293746948,"302":-1.4905954599380493,"303":0.849534273147583,"304":-0.21430093050003052,"305":-2.5361533164978027,"306":-4.194828987121582,"307":-2.1401960849761963,"308":3.6362850666046143,"309":0.505618691444397,"310":1.4873660802841187,"311":1.1831861734390259,"312":-1.3383851051330566,"313":-0.24501310288906097,"314":-2.5812082290649414,"315":-0.6841667294502258,"316":-0.6380713582038879,"317":-0.39024415612220764,"318":-0.7731553912162781,"319":-1.356015920639038,"320":-0.1094503402709961,"321":-2.1471781730651855,"322":-0.12177625298500061,"323":-1.3207981586456299,"324":1.107223391532898,"325":0.9140005707740784,"326":-1.3699043989181519,"327":-0.5056949257850647,"328":-0.1841863989830017,"329":3.061554431915283,"330":0.6903153657913208,"331":-0.5022245049476624,"332":0.6081276535987854,"333":4.689589500427246,"334":0.9218935966491699,"335":-1.7649879455566406,"336":-0.02645624242722988,"337":-0.6991498470306396,"338":-2.5484812259674072,"339":-2.221811532974243,"340":-0.6857378482818604,"341":-1.0451691150665283,"342":0.09819592535495758,"343":2.045698404312134,"344":-0.8365722298622131,"345":-0.3138829171657562,"346":0.44031667709350586,"347":0.7997620701789856,"348":0.14560502767562866,"349":-0.5270450115203857,"350":-1.3894414901733398,"351":-1.835431694984436,"352":-1.4818540811538696,"353":0.391833633184433,"354":-1.0259101390838623,"355":-1.9881672859191895,"356":-1.1147679090499878,"357":-2.3967013359069824,"358":-3.09567928314209,"359":0.2008911669254303,"360":-0.5795564651489258,"361":0.23468483984470367,"362":0.07666085660457611,"363":2.3106582164764404,"364":0.20803385972976685,"365":-0.38058432936668396,"366":-0.46066755056381226,"367":-0.07109250128269196,"368":-1.4130899906158447,"369":-1.5596991777420044,"370":0.8083654046058655,"371":0.7796247005462646,"372":-2.141808032989502,"373":1.213258147239685,"374":-0.720382809638977,"375":3.0718982219696045,"376":-0.5892809629440308,"377":-0.7832031846046448,"378":-1.0912779569625854,"379":-0.0337536595761776,"380":0.7524548768997192,"381":-0.7228297591209412,"382":-1.0852521657943726,"383":0.4162513017654419,"384":-0.4775180518627167,"385":1.3419312238693237,"386":-3.061962842941284,"387":1.4718531370162964,"388":-0.8257579207420349,"389":-3.6256179809570312,"390":0.566783607006073,"391":2.768061637878418,"392":1.2838876247406006,"393":-0.5900190472602844,"394":0.05675213411450386,"395":-1.2378363609313965,"396":3.6214818954467773,"397":2.7585091590881348,"398":2.9903676509857178,"399":-2.8172290325164795}},"inputBias":{"rows":20,"columns":1,"weights":{"0":0.4228057563304901,"1":-0.742189884185791,"2":-0.990677535533905,"3":-0.7216219305992126,"4":0.7460024356842041,"5":-0.16595962643623352,"6":-0.4519149661064148,"7":0.15317636728286743,"8":-0.6119300723075867,"9":0.1198718249797821,"10":-2.227717638015747,"11":1.3061975240707397,"12":-1.125443935394287,"13":1.231837272644043,"14":0.12965147197246552,"15":-0.11818502098321915,"16":-0.5107318758964539,"17":0.026243502274155617,"18":0.40293267369270325,"19":-1.0332064628601074}},"forgetMatrix":{"rows":20,"columns":38,"weights":{"0":-0.2767118811607361,"1":-1.9093040227890015,"2":-1.3585205078125,"3":0.06428125500679016,"4":-0.8214135766029358,"5":-1.0944716930389404,"6":-0.4203720986843109,"7":-0.9743757843971252,"8":2.00940203666687,"9":0.9306151866912842,"10":1.1485081911087036,"11":-1.5268769264221191,"12":0.46812704205513,"13":1.8760135173797607,"14":0.8409602046012878,"15":-0.05393599346280098,"16":-1.14963960647583,"17":0.24542176723480225,"18":1.1173205375671387,"19":4.44724178314209,"20":0.6316919326782227,"21":-1.8594989776611328,"22":-1.4486064910888672,"23":0.8549203276634216,"24":0.31295451521873474,"25":0.005948686506599188,"26":1.0626155138015747,"27":0.23076114058494568,"28":0.20878569781780243,"29":1.5267990827560425,"30":-0.04562754929065704,"31":-0.006763717159628868,"32":0.5105680227279663,"33":-0.63014155626297,"34":0.5331044793128967,"35":3.296907663345337,"36":2.718038558959961,"37":0.6286003589630127,"38":0.9886401295661926,"39":1.3022350072860718,"40":-0.341205894947052,"41":-1.0243568420410156,"42":-0.27376073598861694,"43":0.3811255991458893,"44":1.223710536956787,"45":0.12261747568845749,"46":-0.7789458632469177,"47":-0.7854101061820984,"48":1.0301021337509155,"49":0.5115834474563599,"50":-0.0428643524646759,"51":1.0769014358520508,"52":0.2188810259103775,"53":-1.2043545246124268,"54":-0.7237712740898132,"55":1.3909474611282349,"56":0.46789413690567017,"57":-0.16695688664913177,"58":-0.8501136898994446,"59":0.33592236042022705,"60":-0.2375515252351761,"61":1.9907071590423584,"62":0.9090418815612793,"63":0.761330246925354,"64":0.9972324371337891,"65":-1.5982438325881958,"66":-1.5783015489578247,"67":-0.19297897815704346,"68":-0.973789393901825,"69":0.10364864021539688,"70":-1.0037864446640015,"71":-0.02028905600309372,"72":-0.38767489790916443,"73":1.4837796688079834,"74":-0.17259663343429565,"75":2.224830150604248,"76":1.4996013641357422,"77":0.07272827625274658,"78":0.8973304033279419,"79":-0.11565226316452026,"80":-1.2881855964660645,"81":0.9937840104103088,"82":0.43323349952697754,"83":0.41486048698425293,"84":-0.14197567105293274,"85":1.9062496423721313,"86":0.02340124174952507,"87":0.9547294974327087,"88":-1.7338097095489502,"89":0.5873602032661438,"90":-0.6580828428268433,"91":0.5725718140602112,"92":0.7567549347877502,"93":0.266876757144928,"94":-0.24021922051906586,"95":1.0687792301177979,"96":-1.3738973140716553,"97":0.17066627740859985,"98":-0.49742719531059265,"99":-0.5169587731361389,"100":-1.9068421125411987,"101":-2.2154176235198975,"102":-0.16015717387199402,"103":0.49014735221862793,"104":1.5368874073028564,"105":0.8953425288200378,"106":-0.6646402478218079,"107":2.4351048469543457,"108":1.0205248594284058,"109":0.4346598982810974,"110":0.17715874314308167,"111":0.8655450940132141,"112":0.13440464437007904,"113":0.06752881407737732,"114":0.3035576045513153,"115":0.45005908608436584,"116":-0.7779329419136047,"117":-0.11881586909294128,"118":1.5209615230560303,"119":-1.8527629375457764,"120":-0.11203522235155106,"121":0.24151380360126495,"122":-0.875924289226532,"123":-1.1858221292495728,"124":-0.21250945329666138,"125":-0.883251428604126,"126":-0.19905786216259003,"127":-0.8502110242843628,"128":-0.13302971422672272,"129":1.7627263069152832,"130":-2.377211332321167,"131":0.24046491086483002,"132":2.6765878200531006,"133":-1.2238962650299072,"134":0.23005007207393646,"135":-0.033211130648851395,"136":1.262427806854248,"137":0.4862789809703827,"138":-0.25905248522758484,"139":0.11502373218536377,"140":0.527995228767395,"141":0.3235919177532196,"142":-1.589218258857727,"143":0.43996378779411316,"144":0.5185000896453857,"145":-0.40360933542251587,"146":-2.2229185104370117,"147":-0.8256610631942749,"148":-0.9012727737426758,"149":0.14854061603546143,"150":1.3973199129104614,"151":-1.066318392753601,"152":-1.51759672164917,"153":-1.3104064464569092,"154":-0.7699464559555054,"155":-0.8162228465080261,"156":1.2760744094848633,"157":-1.1401638984680176,"158":0.6070734262466431,"159":-0.6629273891448975,"160":0.3785162568092346,"161":-0.20229412615299225,"162":1.5923353433609009,"163":-1.2354440689086914,"164":0.8141098022460938,"165":-0.314059853553772,"166":0.439409077167511,"167":0.7668121457099915,"168":0.35086876153945923,"169":-1.0722553730010986,"170":1.7983214855194092,"171":-0.08268186450004578,"172":0.8976073265075684,"173":1.638824462890625,"174":1.09398353099823,"175":1.1337735652923584,"176":1.5557372570037842,"177":0.6137214303016663,"178":-0.6351771950721741,"179":-0.7844470143318176,"180":-0.2029033899307251,"181":-2.048682451248169,"182":-1.0791350603103638,"183":-0.1097458004951477,"184":-1.151808738708496,"185":-1.5597649812698364,"186":0.4416266083717346,"187":-0.6898198127746582,"188":-0.4668869078159332,"189":0.8375601172447205,"190":1.3024086952209473,"191":1.3280869722366333,"192":3.0144810676574707,"193":0.43883466720581055,"194":-2.3993489742279053,"195":1.284529447555542,"196":-1.1160447597503662,"197":3.321563959121704,"198":-0.7853850722312927,"199":3.879340648651123,"200":0.6077342629432678,"201":0.4807920455932617,"202":-1.1225967407226562,"203":-0.8147807121276855,"204":0.2317754626274109,"205":-0.5101458430290222,"206":-1.0099395513534546,"207":-0.8420124053955078,"208":-0.8104658722877502,"209":0.9444975852966309,"210":-0.6779910326004028,"211":-0.7676875591278076,"212":-0.3355965316295624,"213":0.8425877094268799,"214":-1.2076352834701538,"215":0.5558237433433533,"216":-0.6380701065063477,"217":-0.803596019744873,"218":-0.21851272881031036,"219":-1.3199776411056519,"220":-0.46754252910614014,"221":-0.13597242534160614,"222":0.7097282409667969,"223":-0.12079086154699326,"224":-0.20469869673252106,"225":-1.1194874048233032,"226":0.05726892128586769,"227":0.4480704367160797,"228":-2.4569969177246094,"229":-0.13251225650310516,"230":-2.5819966793060303,"231":0.821321427822113,"232":-0.0028522470965981483,"233":-0.18348731100559235,"234":0.16629642248153687,"235":-0.08333296328783035,"236":0.15617355704307556,"237":-1.4187856912612915,"238":-0.871422290802002,"239":-2.2615206241607666,"240":1.2937490940093994,"241":0.6021689772605896,"242":1.7226083278656006,"243":-0.22755540907382965,"244":-1.2099674940109253,"245":-1.2372757196426392,"246":1.2602287530899048,"247":-1.0672017335891724,"248":1.0658873319625854,"249":0.9943194389343262,"250":1.570784568786621,"251":0.08823063969612122,"252":2.374711036682129,"253":2.533773422241211,"254":-1.2551085948944092,"255":-0.24079211056232452,"256":-0.1142086386680603,"257":0.9200966358184814,"258":0.9550788402557373,"259":-2.867147207260132,"260":-1.731590747833252,"261":-0.6526549458503723,"262":2.550326108932495,"263":0.6579238176345825,"264":-0.060843441635370255,"265":-0.3621741831302643,"266":-0.9749060869216919,"267":-1.1059843301773071,"268":-0.6979787945747375,"269":-0.3248392343521118,"270":-1.0403382778167725,"271":1.521691918373108,"272":-1.6771719455718994,"273":0.7635912299156189,"274":-1.6411577463150024,"275":-0.10404127091169357,"276":-2.47627592086792,"277":-2.0185461044311523,"278":1.8408478498458862,"279":-1.4933106899261475,"280":0.6817455291748047,"281":0.2298535406589508,"282":-2.0375754833221436,"283":-0.8267034888267517,"284":-0.022157669067382812,"285":0.7501518130302429,"286":1.5287059545516968,"287":1.0199967622756958,"288":0.7306117415428162,"289":-0.5575952529907227,"290":1.3778738975524902,"291":2.5253984928131104,"292":0.14573125541210175,"293":-0.13795670866966248,"294":2.9803738594055176,"295":-1.365951657295227,"296":-0.12437403947114944,"297":-2.756463050842285,"298":0.4694826006889343,"299":0.15822145342826843,"300":-0.7776972055435181,"301":-1.2645299434661865,"302":1.2372761964797974,"303":-0.6873713135719299,"304":0.3782348334789276,"305":-1.4715114831924438,"306":-0.9914913773536682,"307":1.4964385032653809,"308":1.244889497756958,"309":0.80250483751297,"310":-0.44534093141555786,"311":-0.018038354814052582,"312":-0.6924395561218262,"313":-0.7712815403938293,"314":0.6503048539161682,"315":-0.6697449684143066,"316":0.43239712715148926,"317":-0.30987945199012756,"318":1.4131275415420532,"319":1.697328805923462,"320":-0.27697986364364624,"321":0.4773207902908325,"322":-0.28437578678131104,"323":-1.688401460647583,"324":0.3188042938709259,"325":0.8737042546272278,"326":-0.939155638217926,"327":-0.2860329747200012,"328":-1.0718227624893188,"329":-0.44898509979248047,"330":2.782724142074585,"331":2.2261581420898438,"332":0.5751161575317383,"333":3.035076379776001,"334":0.7512502074241638,"335":-0.32381904125213623,"336":1.2142425775527954,"337":1.902661681175232,"338":-1.6865532398223877,"339":0.04237828031182289,"340":1.996726155281067,"341":-1.387795329093933,"342":-1.8895795345306396,"343":0.16888026893138885,"344":3.167858839035034,"345":1.1239328384399414,"346":1.4953150749206543,"347":0.4586358368396759,"348":2.0720791816711426,"349":0.6040561199188232,"350":-1.0991597175598145,"351":2.8847620487213135,"352":1.745229721069336,"353":1.648074984550476,"354":-0.26336008310317993,"355":-2.073765754699707,"356":-0.474892795085907,"357":2.249793767929077,"358":0.31714534759521484,"359":0.7900636196136475,"360":-2.1117191314697266,"361":-1.1396729946136475,"362":-0.6456390023231506,"363":0.013160771690309048,"364":-0.6139849424362183,"365":0.5851619839668274,"366":-4.4395751953125,"367":-0.8957161903381348,"368":-2.074049949645996,"369":-0.4093955159187317,"370":0.8071304559707642,"371":1.759057641029358,"372":1.4063465595245361,"373":0.8886404633522034,"374":0.19135193526744843,"375":1.3686410188674927,"376":-1.456587553024292,"377":1.738074541091919,"378":0.7628093361854553,"379":-1.548757791519165,"380":1.7870893478393555,"381":0.35927286744117737,"382":1.3674156665802002,"383":0.371228963136673,"384":-0.19711469113826752,"385":0.5523852109909058,"386":-0.1027599424123764,"387":-1.0213831663131714,"388":-0.2819691300392151,"389":-0.23488850891590118,"390":1.076575756072998,"391":1.0583244562149048,"392":-1.257896065711975,"393":-0.9574429988861084,"394":0.721722424030304,"395":1.3120167255401611,"396":-0.28998085856437683,"397":1.7667794227600098,"398":-0.641944408416748,"399":-1.1309781074523926,"400":-1.1681969165802002,"401":-0.2871602475643158,"402":1.1462808847427368,"403":0.5386750102043152,"404":-0.3380032479763031,"405":-0.5766660571098328,"406":0.7084702253341675,"407":3.4080495834350586,"408":0.055431704968214035,"409":1.3625366687774658,"410":0.9225896596908569,"411":-0.7957386374473572,"412":-0.7632114887237549,"413":0.49666842818260193,"414":-1.9650615453720093,"415":0.24076193571090698,"416":1.3464592695236206,"417":-2.202744483947754,"418":-0.8900977969169617,"419":-0.795754075050354,"420":1.3849176168441772,"421":0.7957593202590942,"422":-3.2580909729003906,"423":1.8455171585083008,"424":-1.4445749521255493,"425":2.2017982006073,"426":-1.3733313083648682,"427":0.7337759137153625,"428":-1.0187194347381592,"429":-0.7555053234100342,"430":1.6131439208984375,"431":0.7171043157577515,"432":-0.9775174856185913,"433":-0.7349560260772705,"434":1.5792622566223145,"435":-2.207292318344116,"436":0.060336075723171234,"437":0.8773431777954102,"438":0.08698239922523499,"439":-2.5083909034729004,"440":-3.271155595779419,"441":1.0166163444519043,"442":-1.2421517372131348,"443":0.2608291804790497,"444":1.3668031692504883,"445":1.0502874851226807,"446":0.5487406849861145,"447":2.2076799869537354,"448":4.5590972900390625,"449":-0.02287430316209793,"450":1.1858004331588745,"451":0.43701738119125366,"452":-0.29969316720962524,"453":-2.355318546295166,"454":0.9016612768173218,"455":-0.4218517243862152,"456":2.282282590866089,"457":1.4108476638793945,"458":-0.354666531085968,"459":-0.007904415018856525,"460":0.5558997392654419,"461":0.4261634945869446,"462":1.0176852941513062,"463":1.4437859058380127,"464":0.5506541132926941,"465":1.0702694654464722,"466":0.7769748568534851,"467":-0.13488034904003143,"468":-0.4908279478549957,"469":2.158468008041382,"470":-0.1888330727815628,"471":-1.6046311855316162,"472":0.43125197291374207,"473":0.7698647975921631,"474":-1.1724549531936646,"475":2.2209343910217285,"476":-1.130734920501709,"477":1.1952542066574097,"478":1.0989151000976562,"479":-0.015551376156508923,"480":-2.2796525955200195,"481":0.30400481820106506,"482":1.2643764019012451,"483":-3.192124128341675,"484":2.2127442359924316,"485":1.286706566810608,"486":-1.4137814044952393,"487":-0.05430443957448006,"488":0.7006164193153381,"489":0.4339803159236908,"490":0.687084972858429,"491":2.607290267944336,"492":-1.0511267185211182,"493":1.4064997434616089,"494":0.6992024779319763,"495":1.0454167127609253,"496":-0.07184083759784698,"497":-0.6020601391792297,"498":0.975923478603363,"499":-0.1447788029909134,"500":-0.7688624262809753,"501":0.12427518516778946,"502":-1.4922541379928589,"503":1.573211908340454,"504":-0.8636472821235657,"505":-1.1797069311141968,"506":0.542405903339386,"507":-0.10597644746303558,"508":0.49469423294067383,"509":-0.5821143388748169,"510":-4.314194679260254,"511":-0.9627892971038818,"512":0.9480674862861633,"513":-0.9847931861877441,"514":2.0836641788482666,"515":2.7194817066192627,"516":-0.0539201945066452,"517":-0.34756821393966675,"518":2.461017608642578,"519":2.8892204761505127,"520":-0.034529197961091995,"521":0.2387067675590515,"522":0.9567798376083374,"523":-2.516322135925293,"524":-1.1118688583374023,"525":-1.4654837846755981,"526":-0.8926306366920471,"527":-3.3627443313598633,"528":-0.1239284798502922,"529":0.7942200303077698,"530":2.287018299102783,"531":0.32033461332321167,"532":1.715417742729187,"533":2.649103879928589,"534":0.32085472345352173,"535":-1.7932475805282593,"536":-0.3369237184524536,"537":-0.011966592632234097,"538":-0.8632349371910095,"539":1.7261580228805542,"540":-1.9283356666564941,"541":0.0759119838476181,"542":1.1271848678588867,"543":0.833615779876709,"544":0.5374265313148499,"545":-0.3997935652732849,"546":-0.3723483979701996,"547":0.23497416079044342,"548":0.3611313998699188,"549":-1.5284028053283691,"550":0.1143791452050209,"551":-0.6493549346923828,"552":-0.9154276251792908,"553":-0.14827878773212433,"554":0.727480947971344,"555":0.9747803211212158,"556":-0.8147200345993042,"557":1.7582746744155884,"558":-0.46743419766426086,"559":-0.6909022331237793,"560":-4.269443511962891,"561":-1.337964653968811,"562":0.6304461359977722,"563":-1.8208993673324585,"564":-0.11634361743927002,"565":-0.4455268979072571,"566":0.24023833870887756,"567":0.5610373616218567,"568":-1.2113021612167358,"569":-0.6083628535270691,"570":0.18124426901340485,"571":0.6520368456840515,"572":0.514930784702301,"573":-0.6606265306472778,"574":-0.9821464419364929,"575":0.36475369334220886,"576":1.3633877038955688,"577":3.159377098083496,"578":-1.8419630527496338,"579":-0.008339469321072102,"580":0.5412757396697998,"581":-1.0497630834579468,"582":-1.5974050760269165,"583":-0.06875187158584595,"584":-0.797173023223877,"585":-0.6575142741203308,"586":1.1596875190734863,"587":-0.49934741854667664,"588":-0.8992573618888855,"589":-0.20835664868354797,"590":0.7942392230033875,"591":1.6272377967834473,"592":0.9738084077835083,"593":-1.5898491144180298,"594":-1.2281320095062256,"595":-1.333184838294983,"596":-0.12094061821699142,"597":-0.8642876148223877,"598":2.3967106342315674,"599":-0.2634585201740265,"600":-0.3641163110733032,"601":2.226421356201172,"602":-1.14215886592865,"603":0.3627147078514099,"604":-0.5668042302131653,"605":-1.9880573749542236,"606":-1.0084354877471924,"607":-0.8163982033729553,"608":-1.228073000907898,"609":-1.6329691410064697,"610":-0.12738734483718872,"611":-1.4135380983352661,"612":0.1182672306895256,"613":-2.3159518241882324,"614":-0.9954229593276978,"615":0.8855968713760376,"616":-0.3732956647872925,"617":-0.012742328457534313,"618":-0.5043359994888306,"619":-2.3568761348724365,"620":-0.296443372964859,"621":-0.4264224171638489,"622":-0.3914182186126709,"623":-1.5473271608352661,"624":0.5974690318107605,"625":-2.2683873176574707,"626":0.09386225789785385,"627":0.7059440612792969,"628":1.3789278268814087,"629":-0.5596430897712708,"630":0.40229669213294983,"631":-2.5736517906188965,"632":1.348211646080017,"633":0.07951600849628448,"634":1.042148232460022,"635":-0.9263371825218201,"636":0.5984328985214233,"637":-1.720079779624939,"638":-1.1559678316116333,"639":1.9530302286148071,"640":-0.5743008852005005,"641":-1.9154642820358276,"642":1.0990519523620605,"643":-0.5672563314437866,"644":0.3041365146636963,"645":-0.816046416759491,"646":-1.3582948446273804,"647":0.4035271108150482,"648":-2.5215845108032227,"649":-0.6335548162460327,"650":1.0828065872192383,"651":-0.7182185649871826,"652":0.3222654163837433,"653":1.1502537727355957,"654":-0.9382922053337097,"655":-1.9979032278060913,"656":-1.3611646890640259,"657":-1.9185010194778442,"658":1.313064694404602,"659":0.7896915078163147,"660":-1.1934701204299927,"661":-1.784303069114685,"662":-0.48724809288978577,"663":-1.0465366840362549,"664":1.0000234842300415,"665":0.29146307706832886,"666":2.4300825595855713,"667":1.078984022140503,"668":-0.06272179633378983,"669":-0.4499417841434479,"670":0.826409637928009,"671":0.3913891911506653,"672":-1.1363639831542969,"673":-1.4966392517089844,"674":0.0451284684240818,"675":-1.2919611930847168,"676":-0.4210500121116638,"677":1.8539164066314697,"678":0.16209805011749268,"679":0.19832967221736908,"680":2.719658136367798,"681":-0.27710801362991333,"682":-0.3214094936847687,"683":0.644956111907959,"684":-1.2864645719528198,"685":-3.9991133213043213,"686":-0.7839927077293396,"687":0.9475616812705994,"688":-1.4745770692825317,"689":-0.17772002518177032,"690":-2.153789758682251,"691":1.7590745687484741,"692":0.24841126799583435,"693":0.5927884578704834,"694":-2.6073670387268066,"695":-2.696831226348877,"696":1.4163650274276733,"697":-0.9164543747901917,"698":-0.4808603823184967,"699":0.5323744416236877,"700":-0.37102949619293213,"701":-0.6433897614479065,"702":-0.8655272126197815,"703":0.4119628667831421,"704":1.2290723323822021,"705":-0.7972540855407715,"706":-1.388490080833435,"707":0.15395618975162506,"708":-0.2872563898563385,"709":0.3014238476753235,"710":1.1326329708099365,"711":0.39514708518981934,"712":1.468719244003296,"713":-0.18399715423583984,"714":2.5305473804473877,"715":0.03297504782676697,"716":0.27072596549987793,"717":0.20580139756202698,"718":-0.4390643537044525,"719":-1.4667129516601562,"720":1.74082350730896,"721":-0.17565390467643738,"722":-0.22883549332618713,"723":1.3562932014465332,"724":0.18375135958194733,"725":-2.470499038696289,"726":-2.905156135559082,"727":-1.0292328596115112,"728":-0.5709707140922546,"729":2.1061651706695557,"730":0.922461986541748,"731":0.005475183017551899,"732":0.5169824957847595,"733":0.9259320497512817,"734":-1.269722580909729,"735":-1.0187917947769165,"736":-2.5006141662597656,"737":-1.3062437772750854,"738":0.5923665761947632,"739":-0.2811198830604553,"740":0.6615171432495117,"741":1.8667256832122803,"742":-1.0384471416473389,"743":-1.3065177202224731,"744":1.7129778861999512,"745":2.059269666671753,"746":-0.1723165214061737,"747":0.35672667622566223,"748":-2.32723331451416,"749":-1.181559681892395,"750":0.6766924858093262,"751":-1.005913496017456,"752":-1.818540334701538,"753":1.632476806640625,"754":-0.34065887331962585,"755":-0.5858564972877502,"756":0.4765770435333252,"757":-0.964878499507904,"758":-1.3149120807647705,"759":-1.4273370504379272}},"forgetHidden":{"rows":20,"columns":20,"weights":{"0":-0.1113123893737793,"1":-2.2024707794189453,"2":-1.4003827571868896,"3":1.5634485483169556,"4":0.1354219764471054,"5":1.0726227760314941,"6":-0.9315282702445984,"7":0.9201382994651794,"8":-0.49689510464668274,"9":-1.0182063579559326,"10":1.4772374629974365,"11":0.25377213954925537,"12":-0.1722099930047989,"13":-0.26011785864830017,"14":0.9776321649551392,"15":-0.5658664703369141,"16":0.31164732575416565,"17":-0.7375155091285706,"18":-0.005115094128996134,"19":-1.2458494901657104,"20":0.21471871435642242,"21":0.18589334189891815,"22":0.21045368909835815,"23":0.18049533665180206,"24":-0.4059697389602661,"25":0.4950532913208008,"26":0.6020484566688538,"27":0.23312164843082428,"28":-0.31714972853660583,"29":-0.2486554980278015,"30":-0.915381908416748,"31":0.10948165506124496,"32":-0.090329609811306,"33":-0.5274887084960938,"34":0.25763973593711853,"35":0.3396105170249939,"36":0.170695498585701,"37":-0.34381672739982605,"38":0.020770996809005737,"39":0.19633911550045013,"40":-0.7540432810783386,"41":-0.288219153881073,"42":-0.5870411396026611,"43":-0.49650752544403076,"44":0.6913198828697205,"45":0.6858834624290466,"46":0.3120964467525482,"47":0.530921220779419,"48":-0.6995906233787537,"49":0.538430392742157,"50":1.4182085990905762,"51":-0.09137561172246933,"52":0.5306451320648193,"53":0.12148977071046829,"54":0.2569613456726074,"55":0.7791000008583069,"56":0.9570128321647644,"57":1.108995795249939,"58":0.43259185552597046,"59":0.044231873005628586,"60":-0.12719866633415222,"61":-0.3900696635246277,"62":0.24429984390735626,"63":0.2321532517671585,"64":0.001547191641293466,"65":-0.17726962268352509,"66":-0.4783259332180023,"67":-0.16841010749340057,"68":-0.4359908103942871,"69":1.0925358533859253,"70":-0.8223415017127991,"71":-0.8115261793136597,"72":0.6928037405014038,"73":0.6941258311271667,"74":0.6693168878555298,"75":-0.5930832028388977,"76":0.35487186908721924,"77":-1.396268606185913,"78":-1.3940980434417725,"79":0.7053320407867432,"80":-0.2622216045856476,"81":-0.4257826507091522,"82":0.8748900890350342,"83":0.333081990480423,"84":0.11235660314559937,"85":-1.5081068277359009,"86":0.19668146967887878,"87":-2.8056445121765137,"88":-0.06104816868901253,"89":2.2049498558044434,"90":-0.9723463654518127,"91":0.031071621924638748,"92":0.020635612308979034,"93":-0.8736995458602905,"94":0.12243162095546722,"95":-0.02940160408616066,"96":-0.4830758571624756,"97":-1.099944829940796,"98":0.11841462552547455,"99":1.0744904279708862,"100":0.0020904061384499073,"101":0.633975625038147,"102":0.14096249639987946,"103":0.016112051904201508,"104":-0.2921445965766907,"105":-0.08334364742040634,"106":-0.7393139004707336,"107":-0.8630719780921936,"108":0.6795396208763123,"109":-0.13394707441329956,"110":0.25129035115242004,"111":0.17734771966934204,"112":0.3055937588214874,"113":-0.8149834871292114,"114":1.2541520595550537,"115":0.3319706320762634,"116":-0.28312018513679504,"117":-0.17664194107055664,"118":-0.16276617348194122,"119":-0.38721656799316406,"120":-1.3859589099884033,"121":1.4288182258605957,"122":-2.2566609382629395,"123":-0.32982656359672546,"124":-0.6358795166015625,"125":-0.7337677478790283,"126":1.7679935693740845,"127":-0.08030160516500473,"128":-0.8931195139884949,"129":-0.154623344540596,"130":0.9835188984870911,"131":-1.0392835140228271,"132":-1.3771214485168457,"133":-0.1608879417181015,"134":0.919386625289917,"135":-1.5308486223220825,"136":-0.5260114669799805,"137":0.5556325316429138,"138":-0.26302558183670044,"139":-1.5293611288070679,"140":-0.8819284439086914,"141":-0.15786069631576538,"142":0.09311898052692413,"143":1.2916412353515625,"144":1.3044443130493164,"145":-0.03993489220738411,"146":0.2930901050567627,"147":-1.3312280178070068,"148":-0.4435218572616577,"149":0.6362292170524597,"150":-0.5212774276733398,"151":-0.07000267505645752,"152":-0.5427334904670715,"153":1.7203863859176636,"154":-0.2543623447418213,"155":-0.22677020728588104,"156":-1.2001339197158813,"157":0.2729189097881317,"158":-0.05164237692952156,"159":0.38699162006378174,"160":-0.24302369356155396,"161":-0.6155300140380859,"162":-0.12046486139297485,"163":-0.15422247350215912,"164":0.10777442157268524,"165":-0.8368173241615295,"166":-1.042498230934143,"167":-0.4572030305862427,"168":2.2575531005859375,"169":0.44535136222839355,"170":0.4074384570121765,"171":0.35151833295822144,"172":-0.5969874262809753,"173":-0.8193406462669373,"174":0.05866135656833649,"175":-0.48160719871520996,"176":-0.91263347864151,"177":-0.2591523826122284,"178":0.33430609107017517,"179":0.09064392745494843,"180":-1.0943549871444702,"181":-0.09958150237798691,"182":-1.0786370038986206,"183":1.554402470588684,"184":-0.7409733533859253,"185":-0.1343613564968109,"186":1.3105478286743164,"187":-0.7163652777671814,"188":0.2254493683576584,"189":-0.07858444005250931,"190":0.03313901275396347,"191":0.34710565209388733,"192":-1.8081536293029785,"193":0.4271535277366638,"194":-1.2415786981582642,"195":-0.48292970657348633,"196":0.7818555235862732,"197":0.1756732165813446,"198":0.5312089920043945,"199":0.00757990125566721,"200":-1.7621634006500244,"201":0.37306442856788635,"202":-1.2781505584716797,"203":1.0073734521865845,"204":-0.2409164011478424,"205":0.19589731097221375,"206":-0.9654360413551331,"207":-0.2366209626197815,"208":2.076385259628296,"209":0.30131080746650696,"210":0.8475895524024963,"211":-0.3495751917362213,"212":-1.07479727268219,"213":-1.3657050132751465,"214":0.6135265827178955,"215":-0.20297884941101074,"216":-0.31148022413253784,"217":-1.1767020225524902,"218":-0.7152720093727112,"219":-1.3438143730163574,"220":-1.4583446979522705,"221":-0.12922726571559906,"222":-0.19359718263149261,"223":1.2726480960845947,"224":1.1051669120788574,"225":1.6823338270187378,"226":-0.3890443742275238,"227":-0.10473227500915527,"228":-1.093181848526001,"229":0.8748596906661987,"230":-0.08548522740602493,"231":0.1943817287683487,"232":-0.726284384727478,"233":1.0465866327285767,"234":0.10403953492641449,"235":2.1774189472198486,"236":0.15882158279418945,"237":-0.15830013155937195,"238":1.0070770978927612,"239":0.7380790114402771,"240":0.24092009663581848,"241":0.2696751058101654,"242":4.802469253540039,"243":0.9227055311203003,"244":-0.1883184164762497,"245":-0.9377223253250122,"246":1.7466013431549072,"247":-0.08896300941705704,"248":-3.0213377475738525,"249":-1.0350624322891235,"250":-1.7277613878250122,"251":1.150447964668274,"252":3.122307538986206,"253":-0.7090738415718079,"254":2.882749319076538,"255":4.691888809204102,"256":1.07466459274292,"257":3.04640793800354,"258":1.7180856466293335,"259":0.8096816539764404,"260":-0.2429456263780594,"261":0.011587696149945259,"262":0.17227917909622192,"263":-1.4372429847717285,"264":-1.2768503427505493,"265":-1.27506685256958,"266":-0.27465739846229553,"267":-1.201190710067749,"268":0.2559793293476105,"269":0.5397984385490417,"270":0.2090267539024353,"271":-2.012777805328369,"272":-0.8662530183792114,"273":-0.034544531255960464,"274":-1.6048415899276733,"275":0.44330018758773804,"276":-2.7127842903137207,"277":-1.8148322105407715,"278":-2.4106431007385254,"279":0.4351845979690552,"280":-1.4486057758331299,"281":-0.586054801940918,"282":0.517849862575531,"283":-0.09169937670230865,"284":0.577441394329071,"285":-0.49476248025894165,"286":0.2853371798992157,"287":-0.020331526175141335,"288":-0.6736249923706055,"289":0.4936404228210449,"290":0.6468228101730347,"291":0.15717549622058868,"292":0.7429911494255066,"293":-0.05308334901928902,"294":-0.25519970059394836,"295":-0.5365996360778809,"296":0.03819090127944946,"297":-0.024227222427725792,"298":0.7511693835258484,"299":2.1263816356658936,"300":-0.9663065671920776,"301":-1.2725598812103271,"302":0.16158682107925415,"303":0.2193015068769455,"304":1.1075868606567383,"305":0.45315614342689514,"306":-0.4165286719799042,"307":0.8707464337348938,"308":-0.45097026228904724,"309":-1.0227911472320557,"310":0.09184086322784424,"311":0.9602085947990417,"312":-0.4147287607192993,"313":-0.47509872913360596,"314":0.05393489450216293,"315":-0.0998217761516571,"316":1.531556487083435,"317":1.5625303983688354,"318":1.180412769317627,"319":-0.2792459726333618,"320":-0.9599635004997253,"321":-0.703490138053894,"322":-0.9896257519721985,"323":0.9516006708145142,"324":0.6063127517700195,"325":-0.5615953207015991,"326":-0.24208562076091766,"327":-0.2979593276977539,"328":-0.17960256338119507,"329":1.0939099788665771,"330":-0.5791522264480591,"331":0.44634518027305603,"332":-1.1151925325393677,"333":-0.07063492387533188,"334":0.3724895119667053,"335":0.3478071391582489,"336":2.3065831661224365,"337":-0.572883665561676,"338":0.4870823919773102,"339":0.1013561487197876,"340":-0.4627792239189148,"341":-0.1999337077140808,"342":-1.6300814151763916,"343":2.3546156883239746,"344":0.13073699176311493,"345":1.0885508060455322,"346":-2.325146436691284,"347":1.7105435132980347,"348":-0.23560287058353424,"349":-0.7585737705230713,"350":0.864432692527771,"351":1.7351353168487549,"352":-3.7775299549102783,"353":0.6495618224143982,"354":-0.09542957693338394,"355":-2.335186243057251,"356":2.1835551261901855,"357":1.7000552415847778,"358":1.7175923585891724,"359":-3.3605921268463135,"360":-0.49800628423690796,"361":-0.10758045315742493,"362":-0.9531285762786865,"363":3.108527898788452,"364":0.8368670344352722,"365":-0.015221798792481422,"366":0.023997914046049118,"367":1.8424463272094727,"368":0.43172189593315125,"369":2.125666379928589,"370":0.4027836322784424,"371":2.1716396808624268,"372":1.6048061847686768,"373":-0.3148725628852844,"374":2.539093494415283,"375":-3.128093719482422,"376":1.189228892326355,"377":2.2937374114990234,"378":1.762956142425537,"379":-1.1772758960723877,"380":0.1092807874083519,"381":1.919677972793579,"382":1.3133225440979004,"383":0.019964655861258507,"384":-0.2737123966217041,"385":-0.2835692763328552,"386":0.708989679813385,"387":-0.6216444969177246,"388":-1.2211350202560425,"389":0.4195301830768585,"390":-1.2350119352340698,"391":-0.6801097989082336,"392":0.7661431431770325,